NONE 0.0 0.0 0.0 0.0 0.0 0.0 0.0 0.0 0.0 0.0 0.0 0.0 0.0 0.0 0.0 0.0 0.0 0.0 0.0 0.0 0.0 0.0 0.0 0.0 0.0 0.0 0.0 0.0 0.0 0.0 0.0 0.0 0.0 0.0 0.0 0.0 0.0 0.0 0.0 0.0 0.0 0.0 0.0 0.0 0.0 0.0 0.0 0.0 0.0 0.0 0.0 0.0 0.0 0.0 0.0 0.0 0.0 0.0 0.0 0.0 0.0 0.0 0.0 0.0 0.0 0.0 0.0 0.0 0.0 0.0 0.0 0.0 0.0 0.0 0.0 0.0 0.0 0.0 0.0 0.0 0.0 0.0 0.0 0.0 0.0 0.0 0.0 0.0 0.0 0.0 0.0 0.0 0.0 0.0 0.0 0.0 0.0 0.0 0.0 0.0 0.0 0.0 0.0 0.0 0.0 0.0 0.0 0.0 0.0 0.0 0.0 0.0 0.0 0.0 0.0 0.0 0.0 0.0 0.0 0.0 0.0 0.0 0.0 0.0 0.0 0.0 0.0 0.0 0.0 0.0 0.0 0.0 0.0 0.0 0.0 0.0 0.0 0.0 0.0 0.0 0.0 0.0 0.0 0.0 0.0 0.0 0.0 0.0 0.0 0.0 0.0 0.0 0.0 0.0 0.0 0.0 0.0 0.0 0.0 0.0 0.0 0.0 0.0 0.0 0.0 0.0 0.0 0.0 0.0 0.0 0.0 0.0 0.0 0.0 0.0 0.0 0.0 0.0 0.0 0.0 0.0 0.0 0.0 0.0 0.0 0.0 0.0 0.0 0.0 0.0 0.0 0.0 0.0 0.0 0.0 0.0 0.0 0.0 0.0 0.0 0.0 0.0 0.0 0.0 0.0 0.0 0.0 0.0 0.0 0.0 0.0 0.0 0.0 0.0 0.0 0.0 0.0 0.0 0.0 0.0 0.0 0.0 0.0 0.0 0.0 0.0 0.0 0.0 0.0 0.0 0.0 0.0 0.0 0.0 0.0 0.0 0.0 0.0 0.0 0.0 0.0 0.0 0.0 0.0 0.0 0.0 0.0 0.0 0.0 0.0 0.0 0.0 0.0 0.0 0.0 0.0 0.0 0.0 0.0 0.0 0.0 0.0 0.0 0.0 0.0 0.0 0.0 0.0 0.0 0.0 0.0 0.0 0.0 0.0 0.0 0.0 0.0 0.0 0.0 0.0 0.0 0.0 0.0 0.0 0.0 0.0 0.0 0.0 0.0 0.0 0.0 0.0 0.0 0.0 0.0 0.0 0.0 0.0 0.0 0.0
UNK 0.07631 0.11287 -0.01356 0.03094 0.03423 0.13665 0.06766 -0.06082 0.13082 -0.06625 -0.1456 -0.19731 -0.0524 -0.07471 0.11074 0.11518 0.12111 -0.09942 0.03429 -0.0375 -0.10449 -0.12449 0.18899 -0.00242 -0.15883 -0.0069 -0.09856 0.02391 0.00978 0.06785 -0.13311 0.04753 0.08261 0.03 -0.00518 -0.27567 0.0263 0.14921 -0.15975 -0.06157 0.0576 0.02178 0.18744 0.00035 0.05806 0.05247 -0.06748 0.23521 0.15686 -0.11566 -0.09179 -0.0999 0.13047 -0.02539 -0.12612 -0.16842 -0.04473 -0.20127 0.00442 0.0618 0.01903 -0.04591 0.02092 -0.05151 -0.12096 0.14099 0.10046 0.14685 0.21006 -0.11093 -0.13606 -0.02468 0.17645 -0.07723 0.08136 -0.02856 -0.08977 -0.04886 -0.09514 -0.02099 -0.01414 0.07056 -0.05671 -0.1621 -0.05321 -0.24335 0.07254 0.09918 -0.10855 -0.00787 -0.16109 -0.05859 -0.04618 -0.05546 0.07536 0.05831 0.01807 -0.06494 0.03057 -0.13416 0.07634 0.2871 -0.15407 0.18041 -0.03859 -0.1921 -0.18717 -0.0515 -0.00509 -0.0778 -0.12095 -0.10019 -0.19151 0.06321 -0.04923 -0.06501 -0.03182 -0.09746 -0.06735 0.11975 0.0594 0.10732 0.06753 0.01741 -0.05413 0.19657 -0.08376 0.08486 0.15903 0.10651 -0.15276 -0.18908 0.01182 0.15448 -0.04292 -0.00666 0.03429 0.03931 0.11309 0.03144 -0.03908 -0.16566 0.04777 -0.09766 -0.07537 0.01766 -0.05206 0.09527 0.14782 -0.02182 0.12243 -0.15036 -0.08173 0.18816 -0.09598 -0.00998 0.13743 0.10518 -0.10682 -0.00757 0.2454 0.08525 -0.07976 -0.0726 -0.04817 -0.09956 -0.09708 0.04427 0.08876 -0.07549 0.07875 0.00537 0.10329 -0.04628 -0.08994 -0.04764 -0.04304 -0.0909 0.01684 0.09849 0.07314 -0.11253 -0.11637 -0.1124 0.14144 -0.05081 0.06047 0.17009 -0.15049 -0.009 0.10794 0.05374 0.16713 0.1442 0.03582 -0.05934 0.08446 -0.20788 -0.12014 -0.04066 0.00213 0.06334 0.14384 -0.25651 0.09053 0.01544 0.0303 0.00594 0.07968 -0.14565 -0.04517 0.02644 -0.13517 0.05588 0.0715 -0.01656 -0.00215 0.0074 -0.10149 0.00461 -0.0711 0.09454 -0.11061 -0.07193 -0.2321 0.03476 -0.09463 0.02819 0.01196 -0.21582 0.01179 0.08779 0.00835 0.02243 0.15947 -0.05765 0.00124 0.00168 0.17353 -0.01501 -0.07174 -0.06646 0.0857 0.08348 0.00783 0.01063 0.01116 -0.10459 -0.03811 -0.01814 0.03216 -0.12554 -0.07971 -0.01862 -0.01224 -0.03962 0.03307 -0.18384 0.01225 -0.09206 0.00098 0.02635 0.05415 -0.04743 -0.06741 -0.01216 0.04948 0.0916 -0.15089 -0.18199 -0.00355 -0.15286 -0.09461 0.12477 0.09 -0.09853 -0.12214 -0.06651 -0.17097 -0.07702 -0.29638 0.01314 -0.1453 -0.24093 0.07767 -0.07347 0.0851 -0.00997 -0.07414 0.02752 -0.03684 0.04484 -0.07355 0.00028 -0.03236 -0.05897 -0.13885 -0.14206 0.05637 -0.01405
api_call -0.03771 0.01468 0.07597 -0.09291 0.14597 0.12375 0.04178 0.1081 -0.00885 0.1759 -0.02284 0.0786 0.14757 -0.10143 -0.00999 0.15164 -0.16567 0.00022 -0.04854 -0.01935 -0.08038 -0.1257 -0.03993 -0.07542 0.14967 -0.02693 0.11435 -0.00501 0.09853 0.16436 0.2035 -0.17325 -0.11522 0.11722 0.10889 0.08278 -0.02741 -0.05698 0.01892 -0.02037 -0.03611 -0.07144 0.06053 -0.10372 0.02671 -0.18629 -0.11659 0.09083 -0.06888 -0.04253 0.1781 0.15528 0.0784 -0.22008 0.09589 0.04157 0.09523 -0.06267 -0.04976 -0.04307 0.07901 -0.09558 0.04237 -0.01191 -0.14119 -0.10754 0.07354 0.09563 0.02896 -0.12221 -0.0124 0.04538 0.06336 0.01815 -0.10882 -0.01444 0.19375 0.13431 0.05726 -0.06402 -0.15135 -0.06454 -0.04618 0.11022 -0.12307 0.03858 -0.15582 -0.07694 -0.122 -0.12417 0.11398 -0.03785 -0.08216 -0.02091 0.08998 -0.21876 -0.03747 -0.02023 0.11603 0.09911 0.01125 -0.0223 -0.05928 0.02265 0.02406 0.16018 0.20751 0.11823 0.02152 -0.08083 -0.0948 -0.06701 -0.00117 -0.09241 0.06533 -0.11382 0.08598 -0.02513 -0.12649 0.00927 0.14446 -0.07758 0.17599 -0.20387 0.12677 0.1352 0.11829 -0.08003 -0.10259 -0.1857 0.11354 0.15206 0.09301 -0.15448 -0.01713 -0.13259 -0.03707 -0.03229 0.02459 -0.08142 -0.08373 0.19091 -0.19897 0.0854 -0.1419 0.17784 -0.11969 0.143 -0.05089 -0.11575 -0.15652 -0.01949 -0.06959 0.05916 0.01803 0.0766 0.01285 -0.04028 -0.14172 -0.1154 0.02845 -0.1005 0.05594 0.12939 -0.05183 -0.06719 -0.07509 -0.14178 -0.01553 -0.0592 -0.00473 -0.04069 0.03177 0.0611 -0.01923 0.04288 -0.12355 -0.00833 0.07477 -0.03612 0.14359 0.04512 -0.00401 -0.05186 0.21401 0.1483 0.0617 -0.05882 -0.13724 0.03201 0.12754 0.02508 -0.08208 -0.00947 0.17909 0.1372 0.06188 -0.0196 -0.14318 0.03463 0.10072 -0.01357 -0.01986 -0.14806 0.03196 0.03767 0.04202 0.00838 0.01327 -0.09612 0.04342 0.13976 0.03972 -0.13061 -0.20804 0.05591 0.00587 -0.0009 -0.17941 -0.03354 -0.03924 0.01354 0.215 0.13304 -0.10175 -0.0316 0.04489 0.02547 -0.13983 0.03455 0.00988 -0.10827 0.04133 -0.14085 0.08324 -0.09908 0.11653 -0.03597 0.06586 0.0719 -0.16163 -0.07333 0.03561 0.00561 0.03307 0.27201 -0.00353 0.25514 -0.03876 0.00551 -0.00361 0.04389 -0.0705 0.12456 0.06818 -0.03604 0.00496 0.03073 0.06932 0.16836 0.05635 -0.02895 0.05123 0.13319 0.02063 0.1079 0.10999 -0.10397 0.05337 0.01587 -0.0128 -0.15891 -0.03565 0.04206 -0.10955 0.19999 0.1006 -0.02932 0.14383 0.04647 -0.0542 0.0004 -0.26382 0.05496 0.22111 0.08909 -0.07609 0.09697 -0.01966 0.0624 -0.05374 -0.06959 -0.20973 -0.04831 -0.07904 -0.0237 0.01236 0.06104 0.01311 0.31092
<silence> 0.06172 -0.03958 0.01938 -0.12882 0.08153 0.12168 0.04303 0.02447 -0.0941 0.00743 0.1179 -0.07667 0.00831 -0.13702 0.07894 -0.0084 0.16962 0.12804 -0.04066 -0.0194 0.02035 -0.05014 0.0966 0.11045 0.25904 0.03264 0.09156 0.20611 -0.00288 -0.05024 -0.24347 -0.08235 -0.00591 0.12558 -0.05036 0.00769 0.13274 0.07545 0.01843 0.00295 0.07835 -0.08194 -0.00126 0.08866 -0.18391 -0.03309 0.03798 0.03909 -0.08277 0.10002 0.17117 0.17556 0.03799 -0.08042 0.01188 -0.20519 -0.01562 0.01607 -0.08195 -0.08237 -0.03177 -0.07974 0.04712 0.02479 0.01129 0.05292 0.01011 0.00943 -0.05541 0.1407 -0.02202 0.06407 -0.13349 0.18577 0.06198 -0.02558 -0.00199 -0.13144 0.00294 -0.03184 0.01972 -0.18612 -0.03904 0.05669 -0.07301 -0.08065 -0.16169 0.10313 -0.02563 -0.19529 0.05502 0.10067 -0.03911 -0.21877 -0.11764 0.01332 0.03781 0.05868 -0.018 0.08922 0.0612 -0.06301 -0.11923 -0.04312 -0.07351 0.1254 0.00751 -0.04029 0.04185 0.11284 0.07145 -0.11747 -0.04061 -0.04431 -0.04354 -0.02141 -0.1908 0.04919 0.07901 0.00896 0.02932 0.03703 -0.10084 0.05956 0.18365 0.04676 0.14323 0.01895 -0.06489 0.07864 0.1313 -0.11731 -0.13877 0.05547 0.13194 0.00094 -0.15728 0.01323 -0.18487 -0.01013 -0.07155 -0.0072 -0.11548 0.03689 -0.05825 -0.04002 0.1291 0.04632 -0.08786 0.09465 0.16895 0.00366 -0.08693 0.08823 -0.13429 0.0564 -0.09653 -0.10786 -0.16796 -0.00435 0.08564 -0.15843 -0.07497 -0.00165 0.08246 0.17229 -0.03692 0.11841 0.05591 0.06072 -0.08654 0.01209 -0.02516 -0.01579 0.0304 -0.2221 0.00472 -0.04273 0.08475 0.01911 0.03924 0.10362 0.02868 -0.05117 -0.15112 0.04123 2e-05 -0.12202 0.02201 -0.14588 -0.06897 0.12214 0.01678 0.06669 -0.01805 0.0676 -0.06346 0.21034 0.14478 -0.01653 -0.01245 -0.19517 -0.14934 0.11318 0.1059 -0.0331 -0.1017 0.00294 0.04329 -0.17446 -0.01539 -0.1568 0.0316 -0.16629 -0.04105 -0.0796 -0.07066 0.0434 -0.01001 0.00099 0.13735 0.05437 -0.04128 -0.04789 -0.04983 0.00653 -0.08456 0.09254 0.16341 0.17851 -0.00871 -0.11488 0.00675 -0.09837 -0.11069 -0.0457 0.10228 0.08839 0.02013 0.09282 -0.08775 -0.09298 0.01893 0.10159 0.0871 -0.10804 0.0415 -0.06389 -0.0008 -0.06927 0.11126 -0.01788 0.06844 0.07421 0.03151 -0.16145 0.04882 0.0406 0.04956 -0.19789 0.10234 -0.0817 -0.00203 0.16303 0.0388 -0.02098 -0.01857 -0.27393 0.05525 0.05748 -0.08639 0.02365 -0.1276 -0.12251 -0.02976 0.05929 -0.13078 -0.04366 -0.03613 -0.04247 -0.17613 0.11971 -0.05718 -0.06216 0.03428 -0.13148 -0.05021 0.17221 0.00664 0.01899 0.10927 -0.21881 -0.02271 0.11848 -0.06998 -0.11286 0.10567 0.01143 0.11317 0.07263
hello -0.33712 -0.21691 -0.0066365 -0.41625 -1.2555 -0.028466 -0.72195 -0.52887 0.0072085 0.31997 0.029425 -0.013236 0.43511 0.25716 0.38995 -0.11968 0.15035 0.44762 0.28407 0.49339 0.62826 0.22888 -0.40385 0.027364 0.0073679 0.13995 0.23346 0.068122 0.48422 -0.019578 -0.54751 -0.54983 -0.034091 0.0080017 -0.43065 -0.018969 -0.08567 -0.81123 -0.2108 0.37784 -0.35046 0.13684 -0.55661 0.16835 -0.22952 -0.16184 0.67345 -0.46597 -0.031834 -0.26037 -0.17797 0.019436 0.10727 0.66534 -0.34836 0.047833 0.1644 0.14088 0.19204 -0.35009 0.26236 0.17626 -0.31367 0.11709 0.20378 0.61775 0.49075 -0.07521 -0.11815 0.18685 0.40679 0.28319 -0.1629 0.038388 0.43794 0.088224 0.59046 -0.053515 0.038819 0.18202 -0.27599 0.39474 -0.20499 0.17411 0.10315 0.25117 -0.36542 0.36528 0.22448 -0.97551 0.094505 -0.17859 -0.30688 -0.58633 -0.18526 0.039565 -0.42309 -0.15715 0.20401 0.16906 0.34465 -0.42262 0.19553 0.59454 -0.30531 -0.10633 -0.19055 -0.58544 0.21357 0.38414 0.091499 0.38353 0.29075 0.024519 0.2844 0.063715 -0.15483 0.40031 0.31543 -0.037128 0.063363 -0.2709 0.2516 0.47105 0.49556 -0.36401 0.1037 0.046076 0.16565 -0.29024 -0.066949 -0.30881 0.48263 0.30972 -0.11145 -0.10329 0.028585 -0.13579 0.52924 -0.14077 0.091763 0.13127 -0.20944 0.022327 -0.077692 0.077934 -0.033067 0.1168 0.32029 0.37749 -0.75679 -0.15944 0.14964 0.42253 0.0028136 0.21328 0.086776 -0.052704 -0.40859 -0.11774 0.090621 -0.23794 -0.18326 0.13115 -0.55949 0.092071 -0.039504 0.13334 0.49632 0.28733 -0.18544 0.024618 -0.42826 0.074148 0.00076584 0.2395 0.22615 0.055166 -0.075096 -0.22308 0.23775 -0.45455 0.26564 -0.15137 -0.24146 -0.24736 0.55214 0.26819 0.48831 -0.13423 -0.15918 0.37606 -0.19834 0.16699 -0.15368 0.24561 -0.092506 -0.30257 -0.29493 -0.74917 1.0567 0.37971 0.69314 -0.031672 0.21588 -0.40739 -0.15264 0.32296 -0.12999 -0.50129 -0.44231 0.016904 -0.011459 0.0072293 0.11026 0.21568 -0.32373 -0.37292 -0.0092456 -0.26769 0.39066 0.35742 -0.060632 0.067966 0.3383 0.065747 0.15794 0.047155 0.23682 -0.09137 0.64649 -0.25491 -0.6794 -0.69752 -0.10145 -0.36255 0.36967 -0.41295 0.082724 -0.35053 -0.17564 0.085095 -0.57724 0.50252 0.5218 0.057327 -0.79754 -0.3777 0.78149 0.24597 0.60672 -0.20082 -0.38792 0.41295 -0.16143 0.010427 0.43197 0.0046297 0.21185 -0.26606 -0.05874 -0.51003 0.28524 0.013627 -0.27346 0.061848 -0.57901 -0.51136 0.36382 0.35144 -0.16501 -0.46041 -0.064742 -0.6831 -0.047427 0.15861 -0.47288 0.33968 0.0012092 0.16018 -0.58024 0.14556 -0.91317 -0.37592 -0.3295 0.53465 0.18224 -0.52265 -0.26209 -0.42458 -0.18034 0.099502 -0.15114 -0.66731 0.24483 -0.5663 0.33843 0.40558 0.18073 0.6425
what -0.20017 0.14302 0.052055 -0.00080884 0.017009 0.014899 -0.25524 -0.17907 -0.046713 -2.0547 0.22617 0.082849 -0.2119 0.19906 0.30946 0.22688 -0.060026 -0.033334 0.038108 0.22626 0.52159 0.59871 0.45327 -0.041098 -0.40293 -0.079128 0.0025339 -0.36042 0.065823 -0.010745 0.054722 0.50756 -0.64612 -0.0045895 -1.0173 0.30218 -0.25403 0.095647 -0.047533 -0.32479 0.1473 -0.2024 0.011759 0.11088 0.015631 0.112 0.033769 0.16056 -0.39738 0.093925 0.22837 -0.31089 0.035846 0.044164 -0.30598 0.61444 -0.047129 0.23316 0.20707 0.25667 0.11389 -0.11335 0.37689 0.42253 -0.12522 -0.25177 -0.042779 -0.067905 -0.020935 -0.18254 0.068618 -0.0090734 0.10255 0.33506 -0.11719 -0.17783 0.027547 0.23482 -0.51104 -0.097399 -0.33855 -0.014775 0.35922 0.16305 0.094341 0.18024 -0.0084479 0.423 0.24639 0.31141 -0.54777 0.52251 -0.3672 -0.21798 -0.13245 -0.12492 -0.49334 -0.0058997 -0.012498 -0.49214 0.15075 0.17764 -0.16562 0.025349 0.096398 0.074563 0.30484 0.25288 -0.13054 0.50759 0.17547 -0.23331 -0.043889 -0.28066 0.18836 0.18232 0.24571 -0.042019 0.096973 -0.30044 -0.0054186 -0.31779 0.011232 0.24753 0.0083373 -0.45666 -0.047196 0.39851 0.0059699 0.037121 0.15238 -0.19107 -0.005559 -0.4424 -0.11946 0.06862 -0.1778 0.017349 -0.11998 0.16616 0.014128 0.2064 0.10171 0.13337 -0.49099 -0.29886 0.20528 0.21264 -0.14518 0.13742 -0.61539 -0.093476 0.33104 -0.10262 0.13709 -0.067552 0.092931 0.092051 0.11208 0.017574 0.35888 -0.38706 0.24634 -0.18565 0.12121 0.19534 -0.10963 0.26456 -0.19938 0.088868 0.11595 -0.23044 -0.62528 -0.27601 0.111 -0.058878 -0.3095 0.14474 0.087063 0.24053 0.23826 0.075055 0.08908 -0.30241 -0.088252 0.28571 -0.070077 -0.030338 0.38133 0.45064 -0.12722 0.2314 0.311 -0.046189 0.10391 -0.012487 0.1838 0.080527 -0.031989 -0.45986 1.2992 -0.46095 -0.043503 -0.049583 0.05659 -0.054186 0.095496 0.19565 -0.13754 -0.39788 -0.26887 0.26798 0.27644 0.08585 -0.18111 0.17159 -0.0094278 0.20505 -0.27989 -0.12635 0.17923 0.17281 -0.044121 0.20526 0.50476 0.20821 0.22695 0.10859 0.019256 -0.1453 0.085831 0.062539 0.21132 -0.05678 -0.34562 -0.0078592 0.26591 -0.14611 -0.094381 -0.11839 0.094688 -0.088096 0.51552 0.2753 -0.67519 -0.41352 -0.15537 0.10511 0.041168 0.17814 0.28327 -0.24044 -0.32312 0.22443 0.40035 0.040625 -0.072271 -0.21041 0.026456 -0.39834 -0.0099483 -0.023906 0.047874 -0.16029 -0.072023 0.15884 -0.30268 0.040359 0.091823 0.23122 0.040294 -0.027471 0.2447 0.29567 0.069906 0.21981 -2.3806 -0.029845 0.72655 -0.16307 -0.05433 0.0087763 0.0036759 0.036295 0.023036 -0.057012 0.006363 -0.055003 -0.10056 0.14143 0.045239 -0.35298 0.3335 0.28104 0.20338 -0.4788 -0.039697 0.034939 -0.12599 0.21863
can -0.51102 0.61752 -0.35497 -0.2223 0.10457 0.20751 0.3346 -0.021973 0.25905 -2.2308 0.41973 -0.27544 -0.096306 -0.43 0.17015 0.12219 -0.36435 -0.23498 -0.086072 -0.11234 0.24426 0.1148 0.46854 0.26736 -0.18563 0.020988 0.027941 0.29551 -0.038023 0.11233 0.11396 0.054999 -0.36344 -0.32221 -0.83325 0.30108 -0.10951 -0.091982 -0.12686 0.048181 -0.325 0.1541 -0.37605 0.013721 -0.10778 -0.16442 0.18783 0.31216 -0.29901 -0.0087647 -0.024763 -0.40049 0.1949 -0.28915 -0.16087 0.43843 -0.10645 -0.11427 -0.38679 0.4496 0.8899 -0.06975 0.32602 0.57363 -0.079541 -0.27164 -0.036802 0.54107 0.20348 0.0068903 0.20936 -0.23766 0.21384 0.27481 -0.048731 -0.12284 0.011006 0.074081 0.012131 -0.35476 -0.30538 -0.017769 0.17537 -0.41549 -0.24084 0.13779 -0.29703 0.62587 -0.26024 0.11544 -0.74801 0.29847 -0.17028 -0.44769 0.069822 -0.0062046 -0.19582 0.30517 0.43156 -0.28346 -0.10249 0.18122 -0.3407 -0.11835 0.09867 0.2763 0.56454 -0.25675 0.014815 0.12567 0.098746 -0.25132 -0.11533 -0.19034 0.14321 0.27914 -0.23925 0.23937 -0.12831 -0.035769 -0.00093073 -0.24853 0.14066 0.26616 0.15017 0.17951 0.45126 0.39036 0.41061 0.081743 0.47554 0.23167 0.28947 0.39598 -0.070755 -0.23686 -0.059168 -0.031768 -0.16999 0.20842 -0.23258 0.0947 -0.028888 0.21636 -0.52035 -0.4852 -0.087896 -0.055735 -0.078628 0.22648 -0.26493 -0.23411 0.095053 -0.28445 0.3519 0.35932 -0.026848 -0.031059 0.0070794 -0.14415 0.053427 -0.30339 0.16718 -0.055122 0.16643 0.18781 0.070033 -0.11854 -0.25239 -0.052538 0.25106 0.28598 -0.67171 0.19791 0.061111 -0.56945 -0.31127 0.38608 -0.02359 -0.0097456 -0.034746 -0.27949 0.084978 0.060099 -0.2594 -0.097314 0.0079497 0.18027 0.32291 0.1089 -0.17058 0.55978 0.24668 0.08013 -0.027312 -0.21468 0.47101 0.044437 0.24903 -0.49921 0.81545 0.21895 0.16182 -0.0051256 0.1717 0.079284 -0.018767 0.43171 -0.50292 -0.26808 0.11331 -0.63829 0.2676 -0.09342 0.0089649 0.012098 0.54501 0.35286 -0.1857 0.28629 -0.10819 0.19799 -0.37172 -0.091246 -0.031839 -0.18393 0.43035 0.32186 -0.17135 -0.28476 0.046318 0.43314 0.30555 -0.55866 -0.029246 0.59283 0.032241 -0.015248 -0.51648 -0.0005315 -0.21614 0.054841 0.16618 -0.1455 -0.95462 0.18537 0.19322 0.17694 -0.14976 -0.14218 0.11808 -0.081259 -0.48768 -0.2973 -0.044148 -0.051293 0.10561 -0.25196 0.071363 0.13014 0.18062 -0.48742 0.24087 0.17755 0.063717 -0.36754 0.117 0.45221 0.067609 -0.25066 0.18608 -0.0645 0.60387 0.051715 -0.032263 0.025565 -2.4724 -0.20018 0.17645 -0.26655 -0.18136 0.024749 0.14735 0.23103 -0.28892 -0.0047148 0.34669 0.11751 -0.39083 -0.27126 -0.13658 -0.34365 0.095111 -0.10068 0.0011446 -0.44578 0.0054592 -0.71145 -0.17716 -0.18386
i -0.13292 0.16985 -0.1436 -0.088722 0.07951 -0.14212 -0.024209 -0.26291 -0.074814 -2.36 0.3483 -0.091722 -0.053906 0.30418 -0.13286 0.0050341 -0.15056 0.0023562 0.068321 0.34246 0.39891 0.58813 0.060618 -0.19871 -0.40465 -0.10706 -0.0059312 -0.64842 0.1908 -0.1763 0.092407 0.38685 -0.31085 -0.32574 -1.6823 0.25336 -0.24647 -0.10874 0.0076402 0.3388 -0.059736 -0.8594 -0.080964 -0.22981 0.17709 0.082094 0.74416 0.36873 0.1374 0.29408 0.10647 -0.13246 0.12134 -0.14273 -0.5327 0.64936 0.49657 0.30029 0.67226 0.18005 0.8805 0.038144 -0.08714 0.764 -0.12107 -0.42809 -0.12588 0.00088377 0.10596 -0.30802 0.22887 -0.25468 -0.36484 0.74524 -0.15217 -0.055619 0.12049 0.39876 -0.21991 -0.18444 -0.090398 0.14077 1.2865 -0.4091 0.27999 0.42089 -0.70627 0.79004 0.13804 0.30273 -0.18534 0.18121 -0.71732 -0.54259 -0.0022513 0.30463 -0.49588 -0.17462 0.021335 -0.21341 -0.082391 -0.37676 -0.28001 -0.24238 -0.35249 -0.24116 0.29776 0.37027 -0.17822 0.47537 -0.073484 -0.29747 -0.036304 -0.84941 0.045171 0.28779 -0.17543 -0.27925 -0.099789 -0.13493 -0.078184 -0.35548 0.21692 0.25895 0.2605 -0.43193 0.12076 0.28405 0.15691 0.21351 0.57355 -0.47598 0.045758 0.065907 -0.24157 0.15724 -0.39697 -0.087238 0.011132 0.46365 -0.043082 0.56318 0.52448 0.38723 -0.44893 -0.0036617 -0.14007 0.029963 -0.14168 0.051547 -0.76266 -0.080719 -0.10827 0.020345 -0.14594 0.13781 0.35217 -0.19425 0.47376 -0.2795 -0.083159 -0.61386 -0.3431 -0.099814 -0.024054 0.20529 -0.022244 0.59102 0.17002 0.052526 -0.19144 0.12114 -0.50691 -0.51987 0.05476 0.15022 0.092612 0.34548 0.35603 0.23423 0.13452 0.015486 0.17266 -0.18454 -0.098682 -0.21803 -0.15786 0.70495 0.36798 0.26764 -0.14352 -0.054373 0.43326 -0.16332 0.021658 -0.53408 -0.025548 0.41534 -0.16234 -0.40243 2.0005 -0.13084 0.11824 0.18055 0.31811 0.15508 0.036686 0.30747 0.1952 -0.044309 -0.65875 0.18604 -0.16245 0.040257 -0.53955 -0.012123 -0.0030579 0.017945 0.14503 -0.3564 0.43888 -0.11453 -0.15161 0.24664 0.43432 0.31283 0.42919 -0.12493 -0.11767 -0.00022056 -0.35881 -0.067778 0.21444 -0.79171 -0.11005 0.3094 -0.0030179 0.13354 -0.20436 -0.16333 -0.048577 -0.051513 0.031318 0.36954 -0.047448 -0.076416 -7.8986e-05 -0.072528 -0.084875 -0.14013 0.20147 -0.27516 -0.048958 0.31184 0.71849 0.30594 0.47019 -0.28368 0.10073 -0.41866 0.17655 -0.12393 -0.047247 -0.089221 0.068069 0.014806 -0.28357 -0.25358 0.13204 0.69809 -0.08402 -0.42223 0.55961 0.039954 0.058968 -0.19102 -2.2069 0.081526 0.25289 -0.22367 -0.30142 -0.28467 -0.087759 -0.39672 -0.24318 0.14144 -0.12311 0.0063953 -0.34761 -0.46531 -0.0010615 -0.39291 -0.1778 -0.12175 0.24335 -0.77835 0.39598 -0.23778 0.14766 0.62902
help -0.080441 0.072276 -0.47046 -0.39104 -0.0016158 0.067585 0.17371 -0.010269 0.34673 -1.8027 0.28699 0.10734 0.18789 -0.23229 0.077246 0.078237 -0.28733 -0.34066 -0.52859 -0.44792 -0.18159 0.057706 0.25858 -0.019292 -0.41242 -0.13664 0.19858 0.56117 -0.15409 0.17219 -0.08194 0.078323 0.097838 0.04864 -1.114 -0.050579 0.35848 0.34886 0.34127 -0.64265 -0.12808 -0.35484 0.1199 -0.077495 0.063473 -0.37295 0.072659 0.011944 -0.47462 -0.48045 0.59551 -0.36085 0.18927 -0.51182 -0.54686 0.2469 0.14358 0.57133 -0.42025 0.11755 -0.12271 -0.072575 0.17304 0.13711 0.17977 0.16187 -0.11624 0.13089 0.12437 0.18895 -0.076498 0.13489 0.073675 0.44962 0.58863 -0.29064 -0.15113 0.072645 0.1485 -0.39212 0.30029 0.12529 0.12684 -0.3036 -0.44763 0.07922 -0.20616 0.39867 -0.3476 -0.31335 -0.32662 0.63759 -0.38844 -0.49962 -0.0025611 -0.22946 -0.12531 -0.19352 0.090033 0.17653 -0.00024863 -0.012625 -0.54799 -0.051814 0.59222 -0.084763 -0.02315 -0.10019 0.25353 -0.045892 -0.060717 -0.31227 -0.53768 -0.58062 0.1927 -0.049363 -0.026772 0.22722 0.52736 0.06945 0.1393 0.045033 -0.034804 0.0095499 -0.15807 -0.14173 0.27887 0.13525 0.46626 -0.16879 0.20328 -0.061672 0.3182 0.58873 0.23722 -0.39568 -0.27014 -0.20737 -0.34608 0.24676 0.058815 -0.10388 -0.052924 0.17005 -0.52283 0.16229 -0.029104 -0.32644 -0.045122 -0.012296 -0.16512 -0.010932 0.25976 0.18761 0.36112 0.30199 -0.15022 -0.093554 -0.10226 -0.25011 0.20165 -0.31907 0.41334 -0.12894 -0.059269 -0.034862 0.26995 -0.036572 0.050343 0.36339 0.11719 0.13704 -0.54878 0.08118 -0.097536 -0.12561 -0.17448 -0.23067 -0.47551 0.38753 -0.23806 -0.28552 -0.040158 -0.056631 -0.53726 0.44252 -0.48466 0.17182 0.20264 -0.16147 -0.27339 0.62135 -0.4478 0.16247 0.38824 0.027204 0.29687 0.078305 0.38374 -0.18996 0.79627 0.64766 0.57441 0.55378 -0.28216 -0.20286 -0.24247 0.13864 -0.15197 0.014679 -0.2957 -0.087804 0.11814 -0.03473 0.11738 0.20385 0.13034 0.46497 -0.23365 0.2715 0.44983 -0.22926 -0.35211 -0.023646 0.11891 -0.39429 0.056817 0.35765 -0.40938 -0.36835 0.050371 0.29938 0.1308 0.32413 -0.36353 0.17082 0.056409 0.25352 -0.054244 -0.22289 0.044481 -0.22284 0.12535 0.22486 -0.53452 -0.060211 0.49283 0.064462 -0.48997 0.032234 0.089944 -0.25542 0.33801 0.015475 0.75453 -0.072116 -0.15774 0.062273 0.2509 0.12641 0.19764 -0.29803 -0.18503 0.020957 0.055707 0.20038 -0.025356 0.046885 0.091507 -0.41609 -0.061274 0.15422 0.147 -0.13332 0.14635 -0.50393 -2.3961 0.2045 1.1073 -0.026327 -0.12827 0.43585 0.3023 0.28669 -0.012126 -0.18497 0.49681 0.51506 0.24434 -0.25971 -0.29236 -0.65207 -0.15905 -0.19968 0.20767 -0.06727 0.024268 0.011365 -0.26679 0.21972
you -0.28427 0.047977 -0.15062 0.019418 -0.10963 0.18222 -0.11821 -0.20882 0.1088 -2.0259 0.27138 -0.14365 0.084653 -0.088175 -0.16669 0.12589 -0.30433 -0.2574 0.24622 0.31348 0.2916 0.65911 0.34504 -0.003569 -0.34488 -0.14918 0.064012 -0.17979 0.090562 -0.27049 -0.17458 0.38784 -0.43893 -0.67898 -1.5777 0.4778 -0.40246 -0.041838 -0.15407 -0.045389 0.11857 -0.33515 -0.20487 -0.035495 0.15259 0.018501 0.80593 0.29267 -0.17255 0.081989 0.26326 -0.25286 -0.075795 -0.17749 -0.56662 0.50391 0.17611 0.05212 0.14223 0.11035 0.74027 -0.096867 0.083969 0.79725 0.003704 -0.2729 0.087329 -0.052325 0.18124 0.075028 0.047539 -0.30228 -0.10071 0.5997 0.037499 0.0096091 -0.11767 0.21654 -0.1053 -0.7492 -0.26626 0.089381 0.57775 -0.34076 -0.11215 0.13016 -0.54676 0.6458 -0.2173 0.087133 -0.5618 0.52618 -0.32394 -0.75991 0.052866 0.25932 -0.4268 -0.093674 0.21914 -0.40569 -0.15567 0.012445 -0.22551 -0.12596 -0.19577 -0.27043 0.33908 0.045641 -0.14513 0.2024 0.035655 -0.42273 -0.14876 -0.61991 0.22532 0.34393 -0.193 0.19224 -0.050948 -0.18799 0.034954 -0.21933 0.16072 0.45311 0.21567 -0.48854 0.34638 0.32015 0.079632 0.13925 0.53335 -0.12667 0.10702 0.17311 -0.15202 0.018213 -0.28562 0.10621 -0.11496 0.58368 -0.073371 0.21681 0.093336 0.31245 -0.77723 -0.25419 -0.40186 -0.015958 -0.10297 0.22091 -0.68557 -0.019566 0.16302 -0.34652 0.28779 0.057854 0.28703 -0.22756 0.2692 -0.18895 -0.011502 -0.21505 -0.019931 -0.23387 -0.09004 0.30702 0.0086308 0.33419 -0.070714 -0.046313 -0.3497 0.25307 -0.82135 0.0052109 0.18186 -0.25161 -0.11474 0.41138 0.2225 -0.098922 0.1491 -0.4238 0.32967 -0.033345 -0.15568 -0.1233 0.51824 0.2831 0.18567 0.22334 -0.061495 0.34828 0.19721 -0.026426 0.0096368 -0.30547 0.10748 0.14175 0.31804 -0.37154 1.7515 -0.0024757 0.33379 0.17365 0.18051 0.13384 0.11731 0.26252 -0.085366 -0.4881 -0.58555 -0.43722 0.23302 -0.11417 -0.27498 0.12396 0.18479 0.37328 -0.08972 0.05309 -0.089491 0.37095 -0.26497 0.23513 0.14425 -0.32658 0.35652 0.32405 0.10638 -0.14149 0.055244 0.11346 0.129 -0.70625 0.0032189 0.13113 -0.23099 -0.12951 -0.27444 -0.22296 -0.095771 -0.031084 0.3224 -0.016385 -0.37818 -0.16563 -0.22267 0.11651 -0.14664 -0.35786 0.26073 -0.27318 -0.30501 0.16742 0.47574 0.23245 0.093751 -0.26701 0.010637 -0.3902 0.084491 -0.59185 0.074939 -0.036574 0.10965 -0.099811 -0.15383 0.0041754 0.011249 0.32394 -0.041205 -0.26279 0.30848 0.14001 -0.14057 0.067458 -2.5609 0.094188 0.042045 -0.4734 -0.26729 -0.052446 -0.0095423 -0.038169 -0.22409 0.40835 0.25794 -0.26793 -0.40305 -0.39295 0.16047 -0.38285 -0.21442 -0.14769 0.18154 -0.8252 -0.0028249 -0.090071 0.016922 0.29278
with -0.50425 0.31073 0.1428 -0.49815 -0.48062 0.046086 -0.4367 -0.2047 0.60727 -1.4841 0.18406 0.13658 -0.55706 0.21308 -0.078474 0.17986 -0.21076 0.28402 -0.23768 -0.079457 -0.34084 -0.15679 0.24787 0.17767 -0.10513 -0.11733 0.28637 0.00069728 -0.27436 -0.1178 -0.035483 0.16504 -0.060951 0.45712 -1.0232 -0.31636 -0.18316 -0.12902 0.017236 0.078239 -0.043684 0.006083 0.055904 -0.15209 0.36043 0.38787 0.11663 0.30253 -0.14993 0.046246 0.12645 -0.097379 -0.055758 0.013977 0.16254 0.079648 -0.13653 0.4208 0.32229 -0.086639 0.41078 -0.22772 0.13508 -0.16501 -0.092752 -0.30608 0.16828 0.1012 0.22314 -0.073602 -0.10437 0.048738 -0.017337 0.322 -0.24678 0.11937 0.20316 0.3155 -0.35358 0.040118 0.13547 0.12252 -0.141 0.14148 0.34178 -0.09911 -0.050285 -0.13262 -0.0053558 -0.27452 -0.05545 0.40733 -0.47851 0.050621 -0.20467 -0.28636 -0.088159 -0.057574 -0.10392 -0.48728 -0.34811 0.063855 0.011071 -0.41127 -0.25818 0.16825 0.467 -0.19987 -0.49671 -0.36456 -0.065765 -0.45327 -0.2299 -0.037196 0.74768 0.005756 -0.81476 0.32475 0.47131 -0.26709 -0.5583 -0.099456 0.23415 0.12299 -0.50688 -0.28213 0.026573 -0.11969 -0.25023 -0.0046001 -0.035697 0.080512 0.077042 0.20817 0.18184 -0.047404 0.12356 0.16409 0.18735 0.36834 -0.15034 0.35515 -0.043497 0.073912 -0.21727 0.24429 0.15656 -0.43379 0.1636 -0.18101 0.58186 -0.058043 0.036068 0.34316 0.25611 0.068941 0.05801 0.13699 0.077206 -0.0062436 0.464 -0.1022 -0.058472 0.19383 -0.059056 0.43927 -0.046884 0.39576 0.065572 0.10308 0.24468 0.0051464 -0.67093 0.062948 0.091564 -0.22453 -0.63027 -0.50616 -0.37829 0.1651 0.54312 0.23679 0.53861 0.056763 -0.19139 -0.37824 -0.059438 -0.0037251 -0.060475 0.018161 -0.1521 0.22743 -0.66182 0.011296 -0.23422 0.013839 -0.049026 0.24425 0.11104 -0.0019173 0.74611 -0.22987 0.28414 0.10927 0.21869 0.02918 -0.15948 0.30102 -0.24625 -0.45545 0.0041354 -0.13119 0.52311 0.09484 0.32809 0.12774 0.2664 0.031831 -0.36174 0.32824 0.69907 -0.4252 0.13377 -0.068563 -0.37317 0.24929 0.023537 0.049957 -0.22989 -0.14998 0.084978 0.014288 0.21495 -0.23156 0.055681 0.27244 -0.09422 0.35368 -0.052623 0.56429 -0.33276 0.11612 0.52414 0.59008 -0.67225 0.20872 -0.049619 -0.1544 0.17582 -0.32253 0.10399 0.0077187 -0.055851 -0.41299 0.58722 0.12799 -0.21887 -0.074941 0.049944 0.45235 -0.1452 -0.32065 0.61359 -0.089471 -0.11961 0.24405 -0.20828 -0.54893 0.0043064 -0.049354 -0.070968 0.044178 -0.014431 0.29241 0.29779 0.30132 -1.6624 -0.23556 0.53168 -0.032046 0.15837 0.26584 0.11235 0.2688 0.19323 0.83389 -0.52801 0.52752 0.11211 -0.2607 -0.24656 -0.4082 -0.39788 -0.19509 0.12998 0.49643 0.28508 -0.44105 -0.0086843 -0.2264
today -0.0088454 -0.17628 0.043939 0.23772 0.13331 -0.038687 -0.26692 0.1492 0.064416 -1.8906 0.0099097 -0.41216 0.062824 0.39153 0.50311 -0.47787 -0.23483 0.18752 -0.025923 -0.14872 0.22798 0.54713 0.53562 0.49984 0.013786 0.15351 0.32206 -0.2693 -0.066984 -0.056332 0.30094 0.20396 -0.38506 0.20942 -0.98693 0.085462 0.0233 0.117 0.032743 0.088524 0.034344 0.14554 -0.14223 0.29083 0.27747 0.15031 0.015692 0.17876 -0.11635 -0.16394 0.043047 -0.19685 -0.40872 0.19822 -0.18383 0.60479 0.11638 0.44498 0.28318 -0.17754 0.43296 -0.24506 0.17239 -0.24866 -0.057211 -0.29188 0.089692 0.013031 -0.50086 -0.18129 -0.069083 -0.02771 -0.26332 0.12949 0.014157 -0.28985 0.31563 0.099121 0.30825 0.20194 -0.2491 -0.19244 -0.01279 0.0057545 0.29472 0.60901 -0.53944 0.10326 0.063383 0.40192 -0.21905 -0.19266 -0.20089 -0.028254 -0.15587 -0.069539 -0.47064 -0.20537 -0.16318 -0.22905 0.33411 0.015556 0.22961 0.10445 0.1181 0.23415 0.41051 -0.023419 -0.38451 0.49738 -0.35865 -0.39961 -0.24785 -0.38461 0.30646 0.28097 0.12096 0.17178 0.0497 -0.081283 -0.078552 -0.27296 0.11996 -0.0074443 -0.23835 0.21975 0.23419 0.2831 0.011749 0.27985 0.090346 0.025083 0.21566 -0.23015 -0.54743 -0.29993 -0.080401 0.076755 0.40147 0.34501 -0.057743 -0.066167 0.23832 -0.09745 -0.080783 -0.10276 0.12633 0.081291 -0.39829 0.12044 -0.059922 -0.18368 0.18074 -0.24459 0.47249 0.37938 0.043726 0.079788 0.47801 -0.23367 0.043868 0.42144 -0.54623 -0.25776 -0.2052 0.29869 0.10683 -0.18799 -0.4148 0.10465 -0.027328 0.010265 -0.56123 0.45347 0.1646 0.02482 -0.38446 -0.095501 0.025647 0.49704 0.29187 0.42845 0.22814 -0.29383 0.41923 0.3182 0.025986 -0.0044008 -0.27322 0.47515 -0.042078 0.15259 0.43879 0.26088 -0.13997 0.053507 0.044633 -0.10604 0.034203 -0.1332 0.81732 -0.21159 0.015451 0.072925 -0.26992 0.14546 -0.072166 -0.43373 -0.062456 -0.2783 -0.017277 0.082453 0.19059 -0.44189 -0.049865 -0.021894 -0.32949 0.02165 0.1279 -0.20539 0.48312 -0.098058 -0.40545 0.31844 0.092103 0.1618 0.33953 0.17009 0.20866 0.14549 -0.10007 -0.16823 -0.022714 0.15636 0.15884 0.0099864 -0.1204 -0.27205 0.17755 0.26393 -0.12742 0.29536 0.35902 0.10661 0.05845 -0.20541 -0.18005 0.055078 0.21277 0.10551 0.16494 -0.03002 0.078659 0.0077392 0.037137 0.30176 -0.14372 -0.0796 0.069418 -0.37574 -0.1011 0.1911 0.15424 -0.30348 0.31292 -0.27983 -0.24061 0.16378 0.28698 -0.17627 -0.028221 -0.15042 0.14542 -0.038499 -0.064335 0.36751 -1.7061 0.2668 0.67515 0.17213 -0.047247 -0.27937 0.015964 0.029388 0.080599 -0.34933 -0.14026 0.084287 -0.28569 -0.10327 0.21801 0.006217 -0.026879 0.15858 -0.23479 0.026735 0.095478 -0.37634 0.021549 -0.063259
'd -0.27767 0.17452 -0.56959 0.3385 -0.19388 -0.049392 0.42736 -0.16087 -0.014204 -1.2725 0.36307 -0.13276 -0.16035 0.11591 -0.15744 -0.038241 0.12982 -0.042966 0.024709 0.22956 0.13351 0.37395 0.12173 -0.24533 -0.40019 -0.22375 0.19524 -0.61531 0.38611 -0.34697 0.077689 -0.048622 -0.12873 -0.56627 -1.5706 0.1506 -0.60426 0.073284 0.07998 0.067423 -0.17805 -0.51795 -0.07763 0.0090815 0.020095 0.1388 0.24204 -0.12935 0.29578 0.16855 -0.052947 -0.13943 0.10259 -0.16403 -0.093907 0.30913 0.26595 0.20874 0.29406 0.00041244 0.36854 -0.099036 0.018125 0.70735 -0.089436 -0.48102 0.12324 -0.069687 0.029545 -0.014345 0.21851 -0.22419 -0.23813 0.8084 -0.076369 -0.093917 -0.0037661 0.16023 0.044561 -0.32704 -0.081231 0.42778 0.65998 -0.22872 0.049093 0.32435 -0.40601 0.48028 -0.037953 0.13078 -0.15595 0.54525 -0.49348 -0.38524 0.23048 0.12896 -0.31823 -0.2987 0.32848 -0.39803 -0.20491 0.13571 -0.38677 -0.12643 0.022904 -0.0092815 0.15344 0.13143 -0.24582 0.19632 -0.22008 -0.26576 0.021206 -0.55409 0.014737 0.60544 -0.056699 -0.1871 0.0089546 -0.1406 -0.016942 -0.35578 0.0010798 0.2815 -0.11375 0.23237 0.14839 0.12856 0.042116 0.031504 0.31811 -0.54406 -0.08355 0.082095 -0.26496 0.18142 -0.2914 -0.20503 -0.18926 0.18793 0.06489 0.15929 0.15735 0.40183 -0.56796 0.16018 -0.26823 -0.039364 0.12028 0.10501 -0.64854 0.18266 -0.0052172 -0.27303 -0.40075 -0.038356 -0.013776 -0.15405 0.2526 0.17973 -0.26232 -0.22835 -0.36206 0.18964 0.32833 0.082902 0.035814 0.19952 0.28364 -0.11788 -0.42242 -0.1653 -0.28814 -0.28735 0.20966 -0.16546 -0.21918 0.30172 0.46333 0.1473 0.020325 0.03076 0.27835 -0.012302 -0.12058 -0.18316 -0.040451 0.64825 0.37691 -0.069235 -0.19827 0.12539 0.36541 -0.17354 0.026477 -0.47408 -0.18428 0.54833 -0.04941 -0.40062 1.564 0.12817 0.34724 0.4217 0.11409 0.14611 0.34072 0.2937 0.019591 -0.14037 -0.61924 -0.046406 -0.10196 0.22973 -0.37453 -0.055399 -0.021978 0.094677 0.20019 -0.25209 0.26764 0.13984 -0.10487 0.090642 0.20536 -0.10567 0.27572 -0.31469 0.14983 -0.097529 -0.043782 -0.011579 -0.10949 -0.87507 0.076148 0.075989 -0.1335 0.017075 -0.26018 -0.36629 0.23181 -0.24031 0.056096 -0.0020383 -0.0063089 -0.10206 0.009714 0.13008 -0.24854 -0.085111 0.20325 -0.28177 -0.0325 0.37906 0.75928 0.18725 0.26315 0.046925 0.032321 -0.12663 0.13737 -0.1774 -0.39999 0.015746 -0.094346 -0.17451 -0.12298 -0.21576 0.039053 0.46719 -0.047645 -0.28888 0.52331 -0.26713 0.034268 -0.10848 -1.9973 0.018105 -0.26708 -0.46226 -0.57943 0.056649 -0.099781 -0.20451 -0.14355 0.093919 0.40623 -0.31937 -0.29794 -0.16103 0.2294 -0.0083688 -0.085171 -0.093599 0.03575 -0.85371 0.32927 -0.16981 0.18146 0.38627
like -0.13443 -0.016333 0.091076 -0.13512 0.27852 0.29178 -0.21126 0.10574 -0.07968 -1.5067 0.50515 -0.087474 -0.21819 -0.040844 0.14312 -0.082217 -0.53797 0.05623 0.32709 0.44037 0.28488 0.47748 0.62411 0.18072 -0.38929 -0.073252 -0.0059524 -0.35452 0.050842 -0.040571 -0.15548 0.43679 -0.4263 -0.26487 -1.11 0.11987 0.019721 0.14673 -0.12203 0.031591 0.077677 -0.32079 0.20393 -0.19557 -0.21029 -0.049291 0.25355 0.22433 0.010408 0.089587 0.36061 -0.53265 0.41946 0.27511 -0.10123 -0.15867 -0.18442 0.23568 0.27679 -0.13319 0.46762 0.040378 0.52146 0.31122 0.0098751 -0.022798 0.0011311 0.5412 0.20078 0.16353 -0.12131 -0.064532 -0.19713 0.20096 0.19576 -0.19618 -0.0043751 0.19402 -0.08638 -0.12761 0.24931 -0.0256 -0.092533 -0.22999 0.099159 0.12469 -0.13303 0.72458 0.16824 -0.13489 -0.15984 0.73847 -0.097546 -0.23225 -0.089774 -0.12451 -0.20881 -0.36301 0.17261 -0.26265 0.20784 0.11085 -0.19082 -0.15476 -0.33242 0.13823 -0.17197 0.25725 -0.29254 0.14508 -0.066827 -0.33656 -0.06018 -0.11604 0.4364 0.36187 -0.11322 0.3354 -0.22812 0.077527 0.073715 -0.58608 0.1874 0.22854 0.17046 -0.19908 -0.30228 0.45081 0.1603 -0.036753 0.29221 -0.060825 0.21799 -0.026588 0.10468 -0.27298 0.037424 -0.0044505 -0.25896 0.31922 0.2628 0.15888 0.3198 0.37559 -0.13872 0.17042 0.10065 0.078357 -0.014909 0.044071 -0.24325 -0.16158 -0.012374 -0.27028 0.033992 -0.032562 -0.059195 -0.23288 0.41683 -0.059207 0.22018 -0.12118 -0.2038 -0.24329 -0.26297 0.085991 0.0064638 0.22861 0.19537 -0.0012901 -0.045607 0.23671 -0.64782 0.29687 -0.21052 -0.42113 -0.059717 0.26027 0.033373 0.030416 0.23425 0.042591 0.49488 0.032922 0.15544 -0.31879 0.0021988 0.11559 0.13348 -0.25235 0.19248 0.053158 -0.11348 0.077442 0.012753 -0.04966 0.23384 -0.098939 0.10033 -0.1115 1.4006 -0.24893 0.22823 0.017223 0.091787 -0.10686 0.013698 0.009888 -0.023554 -0.22982 -0.26896 0.32429 0.34131 -0.33465 0.14921 0.053536 0.16791 -0.010294 -0.23161 -0.34258 0.18642 0.1435 0.095819 -0.14587 0.17523 0.13067 0.19919 0.28649 -0.12757 -0.29474 -0.25396 0.13178 -0.1317 -0.030551 0.26526 0.30241 0.43568 0.058245 -0.25201 -0.31006 0.060397 0.023978 -0.19905 0.22073 -0.57367 -0.11778 -0.28104 -0.011827 -0.27985 -0.018071 0.31566 -0.23372 -0.24394 0.35835 0.48492 0.017522 0.083414 -0.42077 -0.39068 -0.25228 0.13648 -0.15763 0.65683 -0.20055 0.17794 0.071179 -0.5043 -0.091564 -0.10302 0.61491 0.018185 0.11858 0.10756 0.077765 -0.16541 0.24248 -2.2639 -0.42391 -0.19102 -0.30528 -0.36999 -0.088976 0.064001 0.0082633 -0.017181 0.3676 0.017039 0.063698 -0.068058 -0.26708 0.12756 -0.25388 -0.20297 -0.0039839 -0.088324 -0.3185 0.20845 -0.27469 -0.059464 0.49494
to -0.25756 -0.057132 -0.6719 -0.38082 -0.36421 -0.082155 -0.010955 -0.082047 0.46056 -1.8477 -0.11258 -0.12955 0.27254 0.0072891 0.26038 0.12096 -0.23193 0.03226 -0.29472 -0.67594 -0.33844 -0.23297 0.1102 0.18816 -0.45184 -0.33833 0.11274 0.4949 -0.042132 0.079961 -0.013146 0.062284 0.20223 0.038279 -1.1154 -0.1214 0.089846 0.29702 -0.055794 -0.46021 -0.13194 0.087357 -0.27865 0.14981 0.25536 0.16698 -0.04452 0.067588 -0.11772 -0.13452 0.28694 -0.39844 -0.12806 -0.47818 0.067802 0.20353 -0.30677 0.60789 -0.18588 0.11997 -0.040508 -0.06586 0.30621 -0.055824 0.039448 -0.4557 0.21081 0.25889 0.14666 0.3095 0.14343 0.10524 0.15788 0.103 0.32211 -0.27939 -0.17139 0.32202 0.10784 -0.28209 0.12611 -0.23913 -0.089638 -0.39179 -0.26402 0.36796 -0.23691 0.62503 -0.027226 -0.038851 -0.37359 0.045442 -0.17169 -0.54477 -0.091772 -0.32952 -0.25522 0.087106 0.048685 -0.31684 -0.064198 0.044885 -0.49587 0.429 0.36198 -0.14682 0.20122 -0.030038 0.18736 0.31626 0.059023 -0.13473 -0.40664 -0.52983 0.072459 0.082531 -0.32495 -0.006691 0.43564 -0.12976 -0.26293 0.15975 0.25062 -0.064732 -0.30689 0.16084 0.4583 0.38565 0.12612 -0.00080485 0.18055 0.24757 0.5568 0.21701 0.33105 0.11991 0.0027257 -0.10679 -0.16922 0.25277 0.36024 -0.4762 -0.20035 0.38473 -0.71653 -0.13788 -0.12201 -0.16979 -0.29624 -0.010344 0.19216 0.063375 0.30977 -0.19759 0.57419 0.34018 -0.34795 -0.085304 -0.028243 -0.39182 0.23797 -0.092997 0.11981 -0.2368 0.098179 0.083047 0.12652 0.16026 -0.14166 0.14296 -0.12868 0.18181 -0.42337 0.18061 -0.051635 -0.17987 -0.097071 0.0013755 -0.42539 0.56817 0.057432 0.31577 0.18918 0.27639 -0.39906 0.18594 -0.54231 0.61376 0.37921 0.1366 -0.39842 0.58557 0.054558 0.061801 0.32546 -0.19615 -0.034329 -0.013225 0.67854 -0.16672 0.92439 0.11952 0.040351 0.35368 -0.25573 0.26648 -0.020954 0.18535 0.062376 -0.22976 -0.074563 -0.3289 0.28535 0.46959 -0.54324 0.14124 0.19964 0.1541 0.024155 0.144 0.30989 -0.15989 -0.11611 0.09102 -0.50317 -0.33662 0.059168 0.43838 -0.1428 -0.0053718 0.046505 0.21546 0.065006 -0.35175 -0.17137 0.20467 -0.07173 0.40879 0.20295 -0.014211 -0.21898 -0.12831 0.3224 0.17608 -0.60267 0.036737 0.54848 -0.47682 -0.56556 -0.083633 0.032302 -0.25262 0.39481 -0.019623 0.62547 -0.11369 -0.25727 0.073363 0.18437 0.14587 0.32708 -0.52049 0.037555 0.023667 -0.068237 -0.22916 0.017755 -0.18394 0.55107 -0.23965 0.39187 -0.017785 0.43113 0.27181 -0.16043 -0.347 -2.4194 -0.028952 0.95085 0.05804 -0.23623 0.18914 0.31192 0.23064 -0.30309 -0.18603 0.07618 0.37337 -0.14444 -0.028793 -0.012806 -0.59707 0.31734 -0.25267 0.54384 0.063007 -0.049795 -0.16043 0.046744 -0.070621
book 0.048733 -0.055083 0.14947 -0.11269 0.098791 0.54334 -0.51204 0.27882 0.11497 -1.3397 0.41168 -0.14742 0.38694 -0.0082414 -0.03349 -0.057761 0.022663 0.1058 0.010694 -0.077614 0.05708 0.54646 -0.24267 0.69789 0.31597 0.069026 0.033726 -0.10927 0.19253 -0.22226 -0.11307 0.43938 -0.60905 0.11049 -1.4081 0.37343 -0.38587 -0.31585 -0.2864 -0.33769 0.44443 -0.14013 -0.40929 0.59492 -0.076971 0.085855 0.11559 0.38694 -0.64595 0.14493 0.43865 -0.015834 0.20396 0.086829 -0.061201 0.11602 -0.62238 -0.36196 0.065653 -0.2465 0.1282 0.20121 0.57196 -0.13376 0.13502 -0.33951 0.24845 -0.29434 -0.02516 0.031967 0.70872 -0.31889 0.47452 -0.10868 -0.3137 -0.22795 0.2813 -0.18027 -0.12676 -0.36075 0.12622 0.27788 0.32232 0.049936 -0.16924 0.14825 0.19698 0.63745 0.079854 -0.16855 -0.3462 -0.22142 -0.15442 -0.10825 0.27252 0.27918 -0.155 0.60103 -0.22772 -0.71485 0.43519 -0.062915 -0.053097 0.0017236 -0.15239 -0.77073 0.54348 0.66172 0.37839 -0.39163 -0.0077152 0.15246 0.19383 -0.16702 -0.069283 -0.025211 -0.17964 0.04438 0.17526 -0.96582 -0.1045 0.05718 -0.41323 -0.3298 0.019055 -0.019054 -0.20477 -0.13634 -0.33033 -0.35216 0.29539 0.089735 -0.042084 -0.19264 0.022383 -0.20603 -0.086592 -0.024302 -0.49677 0.41228 0.34379 0.041339 -0.027497 0.13265 0.13722 0.019751 0.14309 0.32123 0.1659 0.44638 -0.0079488 0.0066521 -0.47416 -0.28036 -0.12137 -0.3882 -0.42015 -0.013072 0.18059 -0.22993 0.35411 0.10779 0.6287 0.36617 -0.38015 0.40377 0.18683 0.30018 -0.17885 0.22203 0.026145 -0.65242 -1.3714 -0.15032 0.023779 -0.16982 0.096136 0.25005 -0.092247 -0.15785 -0.0077791 -0.29607 -0.31178 -0.32043 0.30184 -0.078093 -0.62673 -0.056443 0.2064 0.21789 -0.40171 0.62907 0.21922 -0.37584 -0.48331 -0.021337 -0.591 0.038486 -0.66271 0.060358 0.6669 0.08867 -0.2916 -0.21274 0.36202 -0.35946 -0.40505 0.23657 -0.08588 -0.18173 -0.31783 -0.73384 0.20424 0.26053 -0.14952 0.2252 -0.45435 0.27584 0.079118 0.098751 -0.13459 0.16389 -0.83314 0.1374 0.16486 -0.132 -0.053984 0.40875 -0.062869 -0.43362 -0.21252 -0.39647 -1.0162 0.29091 -0.03824 0.017988 -0.13284 -0.28344 -0.45818 -0.18828 0.062213 -0.16897 0.01204 -0.38081 -0.81699 -0.21886 -0.68126 -0.083483 -0.02833 0.25576 -0.33616 -0.36663 -0.11254 0.094205 0.61923 0.13938 0.3527 -0.27793 0.45623 -0.317 0.14768 0.17775 0.029573 -0.33501 -0.0057215 -0.050497 -0.24139 -0.25869 0.13273 0.38003 -0.3212 -0.16492 0.55088 -0.023246 0.1446 0.1248 -1.3349 -0.29422 0.59184 0.14384 -0.057715 -0.034459 -0.22582 -0.16592 -0.10082 0.29078 -0.51788 0.11263 0.0020016 0.29779 -0.11647 -0.07208 -0.41821 0.39238 -0.01703 -0.031026 0.25428 0.51352 0.13667 -0.12639
a -0.29712 0.094049 -0.096662 -0.344 -0.18483 -0.12329 -0.11656 -0.099692 0.17265 -1.6386 0.1022 0.034253 -0.24213 0.048212 0.2706 0.35996 -0.40779 0.23785 0.24245 -0.31107 -0.48287 0.26101 0.11878 0.51011 -0.31115 -0.37005 0.11625 -0.42061 -0.034391 0.11809 -0.48955 0.33693 -0.13387 0.34924 -0.837 0.56691 -0.5367 0.38559 -0.28975 0.6247 0.48489 0.36357 0.35868 0.089597 -0.05536 0.11218 0.25683 -0.076713 -0.19422 -0.18243 -0.32841 0.064014 0.051971 0.20494 0.099948 -0.2716 -0.46416 0.10966 0.38606 -0.38436 -0.38772 0.28296 0.62533 -0.21405 -0.3754 -0.57913 -0.1251 -0.17104 0.43539 -0.18758 0.017773 0.35395 0.30074 -0.19863 -0.37743 0.11643 -0.18239 0.021961 -0.37256 0.023748 -0.096721 0.1289 -0.064794 -0.23133 0.45646 0.14918 -0.039145 0.39048 -0.113 -0.031962 0.036758 0.24962 -0.11699 -0.57764 0.57354 -0.14273 0.2503 -0.059743 -0.18562 -0.068998 -0.03661 0.15586 0.19729 -0.33594 -0.16771 0.17228 0.12988 -0.064598 -0.60267 -0.43089 -0.288 0.5353 -0.085713 0.089749 0.93015 0.16516 -0.14327 -0.060793 0.065698 -0.011137 0.24506 0.3287 0.012378 0.34808 0.047224 -0.20778 0.62321 0.14988 0.30187 -0.32872 0.3404 0.22678 -0.53792 -0.11482 0.41729 0.15157 0.15916 -0.12746 0.23922 0.202 -0.20951 0.36117 0.11522 -0.028047 -0.72466 -0.011893 0.031583 0.1739 -0.1262 0.20053 0.33085 -0.26827 0.28153 -0.044422 0.46704 0.049405 -0.46265 -0.27114 0.097589 0.30885 -0.10546 -0.018832 0.18444 -0.015528 0.047652 -0.1205 -0.2874 0.084141 0.53238 0.2009 0.035318 -0.44411 -0.86037 0.2761 -0.16407 -0.23766 -0.53769 -0.046391 0.55086 0.24044 0.31387 0.24542 0.19868 0.27393 -0.24355 -0.4129 -0.46545 0.60012 -0.26015 0.1929 0.36024 0.18589 0.037866 -0.077942 -0.099914 0.034607 -0.12247 -0.27205 -0.13819 0.23319 0.96767 0.34317 0.044022 -0.31471 0.014663 -0.071928 -0.45375 0.029313 -0.22576 0.20704 0.029607 -0.41761 0.2603 0.23784 0.083533 0.12032 -0.19662 -0.2885 -0.25891 0.71359 0.28543 -0.0017777 -0.10196 0.47297 -0.006194 -0.024529 0.11389 0.059219 0.18821 -0.15918 0.19517 0.23143 -0.016216 -0.51149 0.36894 0.55447 0.17006 -0.081063 0.14756 0.43106 0.62111 -0.020083 -0.051027 -0.42335 -0.95094 -0.098285 0.49542 -0.1441 0.18742 -0.1606 -0.073652 0.067304 -0.097287 -0.27716 0.80758 0.20659 -0.34734 -0.17897 0.48319 0.59006 -0.22616 0.28727 0.49545 0.41908 -0.37884 0.023117 -0.11783 0.079173 0.5605 -0.17425 -0.33199 -0.72821 0.10046 0.041775 0.22655 -0.12865 -2.3832 0.2206 0.51407 0.08616 -0.21772 -0.055862 -0.040358 -0.22208 -0.042596 0.037001 -0.50139 0.10573 -0.16145 0.3616 0.075972 -0.42426 -0.3967 0.32683 0.62049 0.34719 0.26952 0.059717 -0.22853 0.29602
table -0.25609 0.50527 0.67024 -0.48323 -0.16092 0.40552 -0.57753 -0.61727 0.27748 -1.1638 -0.27712 -0.020295 0.028775 0.22266 -0.1247 0.21623 -0.34954 0.43872 -0.11429 -0.52088 -0.098776 0.36174 -0.10907 -0.33723 0.12478 -0.17476 -0.02806 0.29812 0.452 -0.15253 -0.083357 0.034761 -0.24092 0.32749 -1.4545 0.48006 0.33196 -0.15403 -0.69421 -0.27767 -0.11927 -0.43105 -0.4729 0.37034 0.34169 -0.053254 0.15647 -0.10772 0.016518 0.38009 0.34295 0.24507 -0.38753 -0.54323 -0.4624 0.33051 -0.55911 -0.27595 0.081592 0.63524 0.49964 -0.43429 0.067199 0.25352 -0.50933 -0.74638 -0.2585 0.23269 -0.25116 -0.10639 0.18584 0.12072 -0.30594 -0.38205 -0.78894 0.19583 -0.24714 -0.074624 -0.15969 -0.44592 -0.081552 0.31978 0.10503 0.0054446 0.26554 -0.75734 -0.5336 0.29012 -0.064118 0.07189 -0.1002 0.18323 -0.36721 0.051837 0.25615 0.11508 -0.20354 -0.024862 0.17289 -0.56787 -0.19497 0.16599 -0.02274 -0.12867 -0.162 -0.17048 -0.10432 -0.2535 0.22045 -0.45661 -0.13745 -0.030224 0.043699 -0.18161 -0.45375 0.060966 -0.56726 -0.039768 -0.26703 -0.063974 -0.26012 0.29441 0.30543 0.32773 -0.31902 0.31058 0.20736 0.020729 -0.34873 -0.16663 -0.11728 0.33342 0.41227 -0.085252 0.52065 0.19647 0.37802 0.29248 -0.44314 0.19523 0.082371 0.2787 0.13965 -0.069098 -0.11195 0.52143 0.43849 0.031215 0.089993 -0.20984 -0.46075 0.32158 0.31261 -0.081539 0.064099 0.020494 -0.068913 0.022847 -0.018045 0.47409 0.2556 0.28942 0.005349 0.22184 0.57588 0.27085 0.029017 -0.097821 0.13408 0.082636 -0.65026 0.37041 -0.1697 -0.52203 -0.075045 -0.40086 -0.1477 0.97495 -0.09886 -0.16054 -0.09224 -0.3793 0.36054 -0.10381 0.44901 0.082892 -0.079977 0.084356 0.042248 -0.096421 0.69179 0.49886 0.40619 -0.0778 -0.14788 0.052709 -0.097877 0.070828 -0.56296 0.052218 0.9761 -0.55365 -0.044514 -0.18417 0.30776 -0.63629 -0.10329 -0.73685 -0.37941 -0.057033 -0.34358 -0.26227 -0.21409 0.18885 0.54081 0.54312 -0.038653 -0.33017 0.16679 0.10521 0.23586 0.13128 -0.0023244 -0.14755 -0.6544 0.22532 0.27533 0.44426 -0.52244 -0.12012 0.061679 -0.12356 0.35028 0.033956 0.57603 0.26243 -0.31625 0.027057 0.068562 0.36305 -0.15707 -0.18638 -0.15245 0.51385 0.0030514 0.36363 -0.54279 0.544 -0.33033 -0.018278 0.034519 -0.3843 0.48172 -0.24719 0.17587 0.34042 -0.25866 0.11471 -0.42484 0.77577 -0.47343 -0.24318 0.66153 0.11481 0.027112 0.079763 -0.10656 0.30877 0.14645 -0.12334 -0.79755 0.082979 -0.10763 0.25616 0.60343 -0.2659 -1.6927 0.16208 0.27091 -0.28799 -0.22056 -0.14432 -0.59781 -0.55899 0.62319 0.10158 -0.069048 -0.35173 0.081867 -0.19861 -0.35076 0.29545 -0.18482 -0.10118 0.25697 -0.40751 0.69387 -0.4472 0.18864 0.18275
in -0.44399 0.12817 -0.25247 -0.18582 -0.16614 0.25909 -0.22678 -0.069229 -0.077204 -1.5814 0.10753 0.15123 -0.039371 0.2006 0.15792 0.43324 -0.21626 0.025275 -0.16592 -0.29108 0.0021523 0.084663 0.36784 -0.032838 0.092125 -0.40108 0.1446 -0.25876 -0.11703 0.098804 -0.04319 0.022361 -0.37503 0.44156 -0.67719 -0.21881 -0.11522 0.18124 -0.58965 0.18788 0.2861 -0.28068 -0.0632 0.54372 -0.025678 0.11458 0.031563 0.52909 -0.088527 0.28774 -0.10665 0.09264 0.1355 -0.18419 0.4314 -0.020869 -0.25236 -0.22679 0.45321 0.043271 -0.13449 0.0049912 -0.14535 -0.29764 0.16016 -0.6684 0.27327 0.15247 0.073077 -0.19881 -0.087157 -0.044633 0.1115 -0.051241 -0.70671 0.023404 0.36067 -0.055768 -0.22948 -0.11894 0.08605 -0.15969 -0.34213 0.2975 0.23921 0.093323 -0.10786 -0.054065 -0.21083 0.13899 0.11314 0.23076 -0.0022573 0.24149 -0.080955 0.04065 -0.378 0.0082898 -0.4385 -0.28115 0.25843 0.15749 -0.043514 0.10557 -0.14622 0.1586 0.19999 0.42149 0.15598 -0.0075512 -0.098827 -0.29451 -0.25065 -0.10596 0.31253 0.029076 0.058986 0.23656 -0.20147 -0.3718 -0.064728 -0.31944 0.28854 -0.25287 -0.16296 -0.081592 0.32626 -0.17376 0.29944 -0.16743 -0.21161 0.262 0.40972 -0.04841 -0.19614 -0.055705 -0.48783 -0.063714 -0.12616 0.55167 -0.12978 -0.20938 -0.14516 0.28025 -0.33003 -0.10742 0.35705 0.019434 -0.19469 0.13617 0.29435 -0.1825 0.092357 0.14214 0.20934 -0.099252 -0.25698 0.11528 0.1976 -0.24459 -0.085121 -0.26033 -0.09665 -0.099706 0.1462 0.12409 0.44139 -0.082185 0.2398 0.33155 0.29472 -0.02574 -0.6724 0.17099 -0.44336 0.40155 0.035535 -0.33381 -0.30127 0.59352 0.06213 0.22637 0.12551 0.059679 0.55479 0.10582 -0.48949 0.33181 -0.07972 -0.35039 0.032213 0.20024 0.36333 -0.12796 0.003225 -0.045665 0.09832 -0.070857 -0.34799 0.27443 1.1264 0.053398 -0.079054 -0.13053 0.074163 -0.22822 -0.040045 0.25848 -0.41994 0.0017782 0.1322 0.22764 -0.20604 -0.013716 0.48998 0.63756 -0.11187 0.11135 -0.19104 -0.13215 0.0023801 -0.24815 -0.48574 0.19432 0.065064 -0.15393 0.14434 0.10069 -0.058673 -0.18539 0.050425 0.27535 -0.24751 -0.050139 0.29191 0.018815 0.36727 0.12812 -0.10293 0.16095 -0.30712 -0.17172 0.39917 0.3457 -0.53083 -0.3528 0.50422 0.14786 -0.071239 -0.019673 0.12915 0.15139 0.02374 0.059252 0.36249 -0.20221 0.21818 0.031545 0.36705 -0.046894 0.13735 -0.057606 0.027779 -0.033237 0.050452 -0.42195 -0.29115 -0.28406 0.25065 -0.23917 -0.16317 -0.1791 -0.12767 0.50467 0.21975 -0.32816 -2.1376 0.087901 0.47143 0.48375 -0.55058 -0.081249 -0.22943 -0.10266 -0.1082 0.37007 -0.4184 0.4504 -0.09231 -0.0079179 -0.2745 -0.037237 0.10104 0.10798 0.37727 0.87977 0.33583 -0.20043 -0.082191 -0.06255
rome 0.15579 -0.12682 0.039515 0.1359 0.49554 0.22866 -0.32457 -0.33084 -0.34179 -1.0314 -0.19426 0.30464 0.39693 0.052947 -0.29709 -0.41987 -0.14345 0.25766 -0.26907 0.071141 -0.5485 -0.038342 0.17909 0.018206 0.40881 -0.23368 0.27556 -0.77666 -0.10578 0.11605 -0.13971 0.33362 -0.54085 0.40434 -0.12869 -0.33061 -0.45806 -0.47795 -0.36158 -0.28963 -0.073571 -0.53832 -0.67514 -0.053115 0.22643 0.36783 0.45492 0.80034 -0.046703 0.27151 -0.16506 -0.2373 0.25753 0.38239 0.41011 0.49753 -0.1082 -0.21396 0.70326 -0.10628 -0.47584 0.29554 -0.20767 0.35271 -0.52103 0.29787 0.02775 0.12097 -0.23212 -1.0237 0.49872 -0.55076 -0.32955 -0.88964 -0.029194 -0.057849 0.20975 0.12537 0.26092 -0.036168 -0.080716 -0.30265 -1.0237 0.12033 -0.057111 0.68092 0.35122 0.29003 0.34897 0.37859 0.51651 -0.38886 -0.33363 -0.31032 0.17947 -0.33917 0.050305 -0.017744 -1.0186 -0.19719 -0.16242 -0.29863 -0.026507 0.43561 -0.099558 0.34454 0.10975 -0.44267 -0.11264 -0.088731 0.13254 0.071257 -0.23915 -0.32854 -0.66423 -0.48008 -0.40556 -0.18457 0.60449 -0.58578 -0.51327 0.44295 0.17701 -0.50821 0.42553 0.15907 0.26133 -0.17799 -0.24412 0.2699 0.41791 -0.50789 0.17285 0.13902 0.16712 -0.65691 0.058875 -0.23273 0.13426 -0.59465 0.054543 0.080898 -0.47238 0.52708 -0.029048 -0.1594 0.25685 0.3069 -0.26302 -0.55384 0.58525 0.21421 0.079298 0.15622 0.057153 0.58271 0.084517 0.39554 -0.30939 -0.89446 -0.22621 -0.071418 0.42094 0.30137 0.38541 0.070477 -0.26258 -0.49498 0.16078 0.10852 -0.28027 -0.23803 0.11764 0.060861 -0.40549 0.21127 0.5058 0.00023643 -0.33079 0.065804 0.30832 0.83645 -0.55344 0.36941 0.13062 0.3643 -1.2764 0.46076 0.28244 -0.17603 0.019537 -0.078029 0.28046 -0.25633 -0.11001 -0.72791 -0.37003 -0.016348 0.02686 0.9227 1.0414 -0.33943 -0.34739 0.55176 0.060553 -0.64934 -0.26672 -0.041887 -0.055918 -0.18446 0.044882 0.18022 0.19292 -0.31619 -0.3383 0.25463 -0.034749 -0.25252 -0.18023 -0.22727 0.54404 -0.26749 0.19146 0.074057 -1.019 -0.49977 -0.22906 0.049769 0.14901 0.12281 -0.29263 -0.11195 0.62534 -0.66411 0.36717 -0.55724 0.44088 0.43166 0.40103 -0.016776 -0.71147 -0.48637 -0.087337 -0.0054872 0.1232 0.39468 -0.69833 0.026113 -0.13162 0.24509 0.46468 0.42396 0.23549 0.16423 0.54994 -0.045274 0.1149 -0.27826 0.45608 -0.10704 0.016605 -0.22036 0.34042 0.44656 0.4932 -0.11652 -0.15128 0.018703 0.33436 -0.34846 -0.26577 -0.088409 -0.13055 0.51006 -0.29032 -0.23816 -1.4544 0.11102 0.92174 0.3252 0.022641 0.29415 0.30826 -0.10695 -0.35456 0.087349 0.017075 0.24808 -0.11739 -0.12772 -0.18916 -0.21196 0.012507 0.69837 -0.5078 -0.21889 -0.6778 -0.048609 -0.64297 -0.42663
for -0.24132 0.12063 0.1919 -0.26692 0.061076 -0.022878 0.58017 -0.22533 -0.20644 -1.6361 0.27715 0.15026 -0.31691 0.38411 0.032003 -0.12901 -0.053065 -0.0055874 0.10467 -0.42931 -0.23605 0.26159 0.070261 0.046544 -0.2076 -0.23013 0.018501 0.25844 0.12839 0.16461 -0.023486 0.20511 0.18169 0.30549 -1.1893 -0.40416 -0.19842 0.14848 0.13756 -0.093425 0.1929 -0.04965 0.038317 -0.29397 -0.079036 -0.10161 0.11877 0.4822 -0.29784 0.21025 0.12835 -0.26482 0.36112 -0.30893 -0.44381 0.18737 -0.21541 0.3949 -0.022203 -0.35489 -0.36777 0.14181 0.41243 -0.71339 -0.073703 -0.33782 0.20737 -0.28501 0.47233 -0.1525 0.065531 0.5353 0.25701 -0.25569 -0.096976 -0.1146 0.18648 0.63131 -0.10587 -0.17148 -0.22473 -0.061003 0.00047845 0.2257 0.045379 0.085725 -0.060717 0.04317 -0.11603 0.25903 -0.30215 0.28587 -0.28818 -0.21763 -0.23948 0.43288 -0.04084 -0.36206 0.022116 0.13942 -0.070819 -0.06265 -0.16719 0.25075 -0.073938 -0.18153 -0.089108 0.12788 -0.50767 -0.30892 0.18676 0.22779 -0.11462 -0.21483 -0.15121 -0.2917 -0.10897 0.22638 -0.074798 -0.15148 -0.13637 0.09204 0.27222 0.19741 -0.062062 -0.27252 -0.15272 -0.10209 0.053098 0.022801 0.1091 0.21148 -0.020907 0.10857 -0.049408 0.11124 -0.17701 -0.00121 -0.14335 -0.096521 0.079911 0.19257 0.34096 0.14215 -0.36738 -0.3207 -0.19761 0.15248 -0.26763 -0.18512 0.43069 0.1615 0.025156 -0.18902 0.25434 -0.49355 -0.51217 -0.13753 0.22434 -0.17512 -0.073847 -0.26023 0.26365 0.13591 -0.17958 0.56764 -0.17501 -0.094047 0.099351 0.18683 0.22519 -0.29088 -0.79464 0.21899 0.071638 0.18663 -0.27274 0.10228 -0.78778 0.6706 -0.043824 -0.099652 0.66548 -0.12354 -0.49125 0.03952 -0.16488 -0.02025 -0.32289 0.083526 -0.14496 0.32379 -0.23525 -0.24786 -0.028118 -0.090129 0.2281 0.10043 0.1415 -0.034989 0.89417 0.1307 0.059509 0.1498 0.20001 0.16255 0.029 0.17797 0.059021 -0.095148 0.20483 -0.092795 -0.049022 0.38437 0.16782 0.39579 -0.6248 0.31983 -0.10613 0.053248 0.28483 -0.26865 -0.63264 0.32117 -0.15954 -0.23866 0.05619 -0.084656 0.014805 -0.15208 0.19622 0.083831 0.18074 0.196 0.57978 -0.072943 0.4357 0.52403 0.10477 0.54837 -0.66689 0.51188 0.22309 -0.017447 -0.71843 0.078075 0.49534 0.055915 0.137 -0.062998 -0.16348 0.52879 -0.15893 -0.19031 0.28423 -0.23602 -0.18803 -0.34223 0.095075 0.050825 -0.33548 -0.64552 0.16552 0.19078 -0.020446 0.56518 -0.15641 0.38419 0.10524 0.24834 0.169 -0.22751 0.27999 0.027417 0.14738 0.32636 -2.7652 0.28688 0.42632 0.02507 -0.6626 -0.35313 -0.16386 0.54448 -0.054815 0.54757 0.0065762 0.27822 0.18534 0.062874 -0.31926 -0.17975 0.22093 0.22999 0.18652 0.21208 -0.14143 -0.063158 -0.32837 0.15507
four -0.39186 0.53741 -0.39279 0.025978 0.045223 0.28188 -0.16363 0.11055 -0.098108 -0.89614 0.1092 0.075342 -0.5885 -0.14854 0.14403 -0.15801 -0.25154 -0.064919 0.12861 -0.31516 -0.5615 -0.080567 0.15046 0.053039 0.11836 -0.10806 -0.3544 0.2622 0.053001 -0.05947 0.10302 0.32758 0.36652 -0.017362 -0.76414 0.14532 0.43128 0.12658 -0.16352 0.47836 0.29244 -0.14413 -0.48376 -0.0062219 0.0054805 0.10399 -0.02019 0.21566 -0.55083 0.28293 -0.22549 -0.40579 0.31655 0.15891 0.036188 0.28287 -0.067971 0.034292 -0.39522 -0.18017 -0.15302 0.36305 -0.032661 -0.51651 0.092939 -0.21174 0.34173 0.15424 -0.4383 -0.10875 0.23427 -0.045435 -0.25476 -0.10364 -0.12409 0.13331 -0.12087 -0.20547 -0.2918 -0.055 -0.17465 -0.071303 0.21607 0.45672 -0.34009 -0.14027 -0.034647 0.17003 0.3407 0.0072068 0.6815 0.34627 -0.30194 0.21428 -0.054947 0.30997 -0.46425 -0.034071 0.18468 -0.41443 -0.2046 0.19496 0.2982 -0.35792 -0.44369 -0.30832 0.18141 -0.14593 -0.43942 -0.17734 -0.19735 -0.23443 -0.1865 -0.32831 -0.31627 0.40503 -0.41286 0.16774 -0.25561 0.1344 -0.27514 -0.23733 0.029966 0.18056 -0.15024 0.19272 -0.026558 0.21129 0.28199 0.1011 -0.17257 0.28694 -0.31903 0.23977 -0.095174 0.19003 -0.044883 0.080421 -0.27695 0.45507 -0.086559 0.12526 0.0013148 0.13194 -0.58557 0.0033889 0.34936 0.22126 0.23566 0.4644 0.6105 0.11963 -0.16472 0.18684 0.32588 -0.048336 -0.46164 -0.2437 -0.0075136 -0.22463 -0.077321 -0.0027306 -0.090337 0.35475 -0.35768 0.59085 -0.19741 0.294 -0.10212 -0.13716 0.079313 -0.19908 -0.57729 0.39462 -0.23266 0.35283 -0.16804 0.38657 -0.14705 0.69175 0.31585 0.37465 0.18167 -0.19828 -0.32586 -0.1293 -0.7879 -0.03405 0.23935 -0.019649 0.021689 -0.24621 0.012276 0.10992 0.50191 -0.11864 -0.065649 0.091873 0.2209 0.39349 1.0787 -0.22331 -0.24924 -0.2726 0.063555 -0.090032 -0.20134 0.31548 0.0042282 -0.41029 0.48454 0.31808 0.23656 -0.19319 0.78091 -0.19655 -0.18177 0.051581 0.20237 -0.13125 0.79415 -0.011344 0.22543 0.27804 -0.020414 0.29767 0.016075 -0.36982 -0.20309 0.081388 -0.019973 -0.2388 -0.32251 -0.40944 0.29804 0.1652 0.37509 0.46077 0.099047 0.16144 -0.018529 0.012245 0.1869 0.21739 -0.32837 -0.73575 0.21202 0.77462 -0.05793 0.060734 -0.30234 -0.21858 0.25749 -0.56596 0.3922 -0.28292 0.12087 0.084969 0.10816 0.082458 0.0283 0.097907 0.49466 0.085334 0.0029103 0.21851 0.078616 -0.073236 0.22267 0.085039 0.038024 -0.14406 0.386 0.62609 0.029775 0.039255 -2.6188 0.30501 -0.065976 0.32904 0.24417 0.18417 -0.044443 -0.065099 -0.12881 0.55906 -0.43376 0.010351 0.06753 -0.22695 -0.15363 -0.31521 -0.29831 -0.4293 0.20894 0.70456 -0.079752 -0.55917 -0.42223 -0.18301
'm 0.21107 -0.0496 0.11299 -0.060284 0.030587 -0.14963 -0.146 -0.13477 -0.11506 -1.5206 0.34446 -0.23602 0.19076 0.29262 -0.35432 -0.014996 -0.26319 0.1522 0.5064 0.24204 0.56201 0.49441 0.066659 0.064549 -0.47829 0.037949 0.19159 -0.71412 0.48712 0.015589 -0.24189 0.47139 -0.62216 -0.78468 -2.0776 0.49048 -0.23637 -0.11504 -0.31224 0.51431 0.22049 -0.49113 0.25811 -0.37739 0.165 -0.086868 0.81981 0.25701 0.19367 0.034931 0.16251 -0.092795 0.02673 -0.068576 -0.6104 0.67052 0.51228 0.32361 0.61778 -0.084817 0.67206 -0.24273 -0.0022844 0.71564 -0.20018 -0.4088 -0.15047 -0.65314 0.083283 0.26804 -0.035167 -0.35593 -0.57969 0.72303 -0.026294 -0.23794 0.28164 0.67363 -0.15832 0.052294 -0.2321 0.12349 0.61339 -0.47523 -0.039934 -0.0071968 -0.61003 0.30482 0.11165 0.35183 0.016197 0.29994 -0.58535 -0.62079 0.051976 0.068292 -0.47173 0.030653 -0.19887 -0.52556 -0.24783 -0.32942 -0.31478 -0.57239 -0.4771 0.18472 0.60914 0.0027746 -0.12368 0.25844 -0.25367 -0.078139 -0.19942 -0.89968 0.51274 0.08276 0.065778 -0.19556 -0.015771 0.16621 -0.25854 0.085859 -0.099192 0.359 0.13076 -0.93994 0.59224 0.26938 0.17179 -0.28705 0.35239 -0.57839 -0.035768 -0.24781 -0.38682 0.030283 -0.36843 0.079145 0.24922 0.19019 -0.21926 0.30778 0.21279 0.45682 -0.45786 0.30071 -0.50099 0.091924 0.17247 0.14866 -0.66486 -0.32895 -0.34845 0.36352 -0.20783 -0.013382 0.1729 -0.1636 0.25506 0.089146 -0.17799 -0.44716 -0.10161 -0.54337 0.11895 -0.071295 -0.24328 0.24311 0.14776 -0.01606 0.14344 0.31284 -0.39183 -0.64815 0.23226 0.10251 0.12238 0.019265 0.43663 0.35063 0.24522 -0.40491 0.65793 -0.15782 0.13741 0.090687 0.050606 0.015788 0.19351 0.032988 0.049942 0.27326 0.25573 0.12825 -0.030496 -0.85762 -0.48944 -0.1213 -0.19414 -0.56197 2.013 0.25602 0.10041 0.065889 0.059295 -0.086244 0.13264 -0.018508 0.48571 -0.080605 -0.42492 -0.0032904 -0.32631 0.18621 -0.37604 0.21455 -0.20181 0.10585 0.054883 0.079084 0.079344 -0.36246 0.12158 0.30389 0.48923 0.069181 -0.11916 0.082819 -0.12395 0.074253 0.31505 -0.1906 0.59341 -0.53059 0.017266 -0.018229 -0.31041 0.18277 -0.26394 0.16431 0.13994 -0.018805 -0.19586 0.22122 -0.069141 -0.2316 -0.36357 0.35404 0.15456 0.23685 0.16497 -0.40797 -0.23668 0.49493 0.64944 0.27833 0.27002 -0.46056 -0.16023 -0.70351 0.18042 0.15094 -0.36196 0.032099 0.1813 0.38509 0.13973 -0.257 -0.20739 0.46403 0.020236 -0.73666 0.13755 -0.1277 -0.056669 0.20041 -1.7283 0.16963 0.10986 -0.37206 0.032261 -0.18428 0.021728 -0.17718 -0.48419 0.081873 -0.18958 0.27392 -0.41165 -0.45683 0.20408 -0.45833 -0.19456 0.041072 0.22083 -0.62892 -0.009944 0.029626 -0.052178 0.73355
on 0.12702 0.21062 -0.18983 0.17677 -0.11784 0.24263 -0.34725 -0.32326 0.081296 -1.776 -0.066081 -0.13377 0.0010102 0.13102 0.41741 0.77473 -0.079518 0.19053 0.044738 -0.40764 -0.046894 0.43964 0.069809 -0.33559 -0.29813 0.23992 0.25527 -0.01276 -0.41956 -0.012923 0.058339 0.29482 0.0023498 0.59658 -0.91161 -0.045339 -0.077606 0.22223 -0.35978 -0.0032221 0.29559 -0.073903 0.153 0.20277 -0.15795 0.56312 0.61164 0.17862 -0.54543 0.012465 -0.048702 0.14993 -0.10606 -0.23837 0.21249 0.14609 -0.38941 0.21154 0.0063223 -0.49875 0.4614 -0.48279 0.14693 -0.21723 0.13918 -0.72538 0.062883 0.36373 -0.026048 0.28178 0.032713 0.76069 -0.14852 -0.2078 -0.049172 0.36036 0.22878 0.23048 -0.048684 -0.042746 -0.3791 -0.65305 -0.040527 0.012467 -0.32755 -0.00079343 -0.22478 0.23896 0.088743 0.10207 -0.15424 -0.17244 -0.076399 -0.16733 -0.27149 -0.089487 -0.51145 -0.44072 -0.35189 -0.58338 0.039402 0.2892 0.070737 0.40452 -0.11042 -0.18783 0.29285 -0.24341 -0.47227 -0.41295 -0.14127 -0.12326 -0.10158 -0.14612 0.13503 0.2155 -0.12738 0.34061 0.066212 -0.56523 -0.37515 -0.026139 0.10008 -0.36536 -0.31964 -0.27996 -0.39328 -0.63451 0.1199 -0.096373 -0.34213 0.69453 0.027494 -0.28522 0.19971 -0.50801 0.29699 0.42254 -0.076711 0.043671 -0.032488 0.095861 0.2288 -0.18848 -0.5737 0.26241 -0.2886 -0.12895 -0.12066 -0.14063 0.46275 0.027324 -0.2266 0.060433 0.3167 0.26924 0.1352 -0.00069562 0.38936 -0.15254 0.21002 -0.36285 0.055914 -0.12957 0.0084472 0.27156 0.12092 0.017946 0.23425 0.064904 -0.096798 -0.13798 -0.35304 -0.34414 0.24178 -0.094931 0.094896 0.36141 -0.60436 0.39594 -0.10306 0.098069 0.59287 0.080016 -0.19832 0.17439 0.093082 0.034396 0.022536 0.16734 0.09336 0.3237 0.14696 -0.36479 -0.15134 -0.37251 0.22861 -0.047097 -0.13095 -0.0042648 1.078 -0.018084 -0.3221 0.39216 0.18934 0.15495 -0.19922 -0.02478 0.0082262 0.0086026 0.39521 -0.051347 -0.068627 0.076787 0.25123 0.30932 0.17876 0.3128 0.1825 0.0015845 0.37666 0.26875 -0.49222 0.18328 -0.21255 0.076356 0.34294 -0.13586 0.22793 0.15081 0.058078 -0.1579 0.22389 -0.30747 0.70675 0.22761 -0.062035 0.24841 0.19329 -0.10496 -0.20189 0.20987 0.51022 -0.10446 -0.58765 -0.072072 -0.20905 -0.28832 0.38399 0.14737 -0.17619 -0.15925 0.58437 0.3505 0.40678 0.1692 -0.65924 -0.31048 -0.033774 0.096349 -0.17757 0.064176 0.28332 -0.015624 0.19514 -0.3799 0.20149 -0.17526 -0.024662 -0.18136 0.20998 -0.32724 0.063608 0.53964 -0.082584 0.38207 -2.3351 -0.068567 0.63971 0.20415 -0.22893 -0.42917 -0.061011 0.19008 -0.4631 -0.33151 -0.52496 -0.10862 0.12819 -0.1692 -0.3198 -0.084328 -0.38527 -0.14194 -0.53048 0.89412 -0.012956 -0.28487 -0.29371 0.24355
it 0.033284 -0.040754 -0.048377 0.12017 -0.13915 -0.17694 -0.062908 0.17056 0.20077 -2.4287 0.40703 -0.099281 0.072288 0.21508 0.24937 0.25853 -0.66372 0.22472 0.25758 -0.17459 0.35456 0.74112 0.14282 0.2624 -0.63519 -0.113 -0.12607 -0.17486 -0.33581 0.30123 0.030055 0.5042 -0.49208 -0.01979 -0.86798 0.18906 -0.14333 0.12869 -0.24102 -0.15733 0.14114 -0.023983 -0.18256 0.19093 0.3873 0.36151 0.39893 -0.033628 -0.0013357 0.027212 -0.15565 0.049335 -0.0067375 -0.11839 -0.25112 0.077261 0.10928 0.31826 0.30289 -0.10824 0.14565 -0.011714 0.13254 0.02512 -0.085447 -0.58705 0.04526 0.15113 0.20622 -0.010576 0.04156 -0.043666 0.012812 0.56017 0.002437 -0.19418 0.15809 0.238 -0.28004 0.17902 -0.50701 -0.12564 0.22921 0.038399 0.43865 0.21877 -0.12866 0.24962 0.073349 0.24244 -0.33333 0.36894 0.024531 -0.31091 -0.16011 -0.10162 -0.55647 0.16483 -0.18894 -0.29003 0.3575 -0.088686 -0.16001 -0.075006 0.15644 -0.11019 -0.090256 0.044778 -0.13956 0.48925 -0.18615 -0.43215 -0.28625 -0.40695 -0.033083 0.049212 -0.30505 -0.054375 0.32744 -0.38276 -0.23654 -0.33828 0.060812 0.22109 -0.070865 -0.29227 0.27939 0.3404 -0.062571 0.14745 0.4494 0.14379 0.40838 -0.20624 -0.1514 0.11336 -0.018322 -0.062837 -0.057378 0.15515 -0.18452 0.28504 -0.12027 0.042864 -0.75146 -0.54257 0.20493 0.018292 -0.28326 0.13001 -0.26985 -0.059708 0.10544 -0.32074 0.37084 0.27499 -0.01289 0.093589 0.036826 0.087546 0.11627 -0.44689 -0.19197 -0.13519 0.040186 0.057983 0.07941 0.33099 0.18328 0.11349 0.018865 -0.018187 -0.69136 0.2621 0.16679 -0.044771 -0.27263 -0.035347 0.097969 0.11006 0.27094 0.075156 0.32314 -0.10247 0.39139 -0.18149 -0.17153 -0.097689 -0.049381 0.21734 -0.036354 0.26657 0.328 -0.24923 -0.18902 -0.15799 -0.095551 0.11969 0.16522 -0.1467 1.0909 -0.48956 -0.30497 -0.25222 0.010357 0.26115 -0.017184 -0.2164 -0.28018 -0.39493 -0.3061 -0.19881 0.25107 0.23895 0.053286 0.046876 -0.15066 0.18805 -0.2381 0.072075 0.074246 0.10051 -0.48924 0.24402 0.17252 -0.016709 0.3346 -0.037864 0.074991 -0.057255 0.04969 -0.054617 -0.15873 -0.13856 -0.18037 -0.02047 0.093404 -0.10968 0.18737 -0.091064 0.2556 -0.12483 0.50991 -0.031007 -0.66628 -0.046616 0.29607 0.094352 -0.056352 -0.41199 -0.046639 -0.2188 -0.45296 0.0077997 0.27725 -0.17912 -0.14488 -0.2547 0.37993 -0.2445 -0.1902 -0.04553 -0.096199 0.14147 0.035747 0.051315 -0.012186 -0.21784 0.33448 0.0038657 0.17195 -0.19242 -0.16028 0.38035 0.18887 0.11157 -2.2484 -0.4274 0.58428 0.20266 -0.22752 0.081917 0.13578 -0.22877 -0.15087 0.067262 -0.18536 0.17819 -0.10328 0.18844 0.091222 -0.402 0.1543 0.23099 0.086138 -0.0024281 0.065196 -0.15408 0.17806 -0.19683
are -0.23589 0.3831 0.10834 -0.063118 0.031596 0.47919 -0.022569 0.76709 0.25337 -1.7607 0.22193 -0.29095 -0.074502 0.35412 0.15508 -0.15028 -0.53825 -0.00541 0.1447 -0.28432 -0.11001 0.32802 0.43443 0.35099 -0.12815 0.35009 -0.021786 -0.31796 -0.086284 0.46415 0.29919 0.59077 -0.5224 -0.30329 -0.84863 0.14022 0.089278 -0.15098 -0.022538 0.057092 -0.36036 -0.048451 -0.11903 0.19829 -0.038005 -0.065528 0.16941 0.31419 -0.044873 -0.06892 0.035291 -0.53412 0.22563 -0.14861 -0.035953 0.32099 -0.15396 0.40714 0.016878 0.36266 0.24424 -0.092926 0.60703 0.62303 -0.066974 -0.26722 0.28154 0.12018 -0.46544 0.12319 -0.19115 -0.10464 -0.0039647 -0.027247 0.026907 -0.027226 0.3928 0.34827 0.068192 -0.21825 -0.25883 -0.16072 0.10265 -0.099584 -0.043757 0.20783 -0.1404 0.18227 -0.010645 0.42071 -0.23216 0.64903 -0.096387 0.038653 0.051364 0.55067 -0.45396 0.42084 0.069118 -0.20421 0.35612 -0.16179 0.065361 -0.26394 -0.81736 0.25345 0.50956 -0.21468 -0.27021 0.10766 -0.27201 -0.5689 -0.14261 -0.35667 0.12876 0.27748 -0.3883 0.11553 -0.029479 0.057487 -0.068723 -0.34848 -0.20724 0.3276 -0.021177 0.2439 0.091965 -0.0011454 0.20234 -0.3962 -0.36262 -0.0019253 0.026191 0.23033 -0.40152 -0.35308 0.23717 0.051574 -0.0051968 0.10298 -0.28419 0.31852 -0.11767 0.20272 0.090399 -0.053257 0.048866 -0.04768 0.33566 0.098481 0.11645 -0.47265 -0.22297 0.22167 0.1693 -0.14103 -0.21233 -0.23463 0.13044 0.017784 -0.0048099 0.13232 0.052457 -0.22741 0.016529 0.46574 0.23264 -0.23079 -0.20518 0.0044659 0.40141 0.16414 -0.76894 0.35441 0.048588 -0.058888 -0.29774 0.20988 -0.30957 0.66625 -0.09967 -0.45606 0.28573 -0.0067435 0.042587 -0.15432 -0.1073 -0.30226 0.59625 -0.248 0.2678 0.1805 0.199 0.1674 0.058236 -0.19015 -0.085125 -0.42967 0.093737 -0.38572 0.34392 -0.0010151 -0.4314 -0.3189 0.44085 -0.25565 -0.077518 0.03558 -0.0043784 -0.7541 0.56524 0.0164 0.24683 0.057251 0.3694 0.17297 0.59185 0.26837 -0.21981 0.14351 0.43901 -0.28796 0.25015 -0.42952 0.16995 0.071226 0.088434 0.43297 -0.43715 -0.35857 -0.095357 -0.21766 0.36788 -0.072162 0.17228 0.44464 0.018139 0.21426 -0.70453 0.43444 -0.28846 0.47258 0.67697 0.46644 -0.99729 -0.21072 0.44665 0.43249 0.4353 0.49677 0.29123 -0.26873 -0.30327 0.11383 -0.27214 -0.035139 0.076457 -0.23865 -0.41687 0.087454 0.13362 -0.021917 0.60685 0.012682 0.040642 0.051966 -0.29938 -0.19071 0.21893 0.33879 0.25367 0.027618 -0.13396 0.33192 -0.26319 0.60059 -2.575 -0.075961 0.27487 0.012565 0.19339 0.052633 -0.15258 0.43323 -0.5283 0.18374 0.042201 0.4525 0.17068 -0.50042 0.089172 -0.48171 0.14821 -0.043882 -0.24315 0.076831 -0.092284 -0.79189 -0.08596 -0.1466
looking -0.25672 0.096977 0.065158 -0.25013 0.21945 0.00050131 -0.15386 -0.10495 0.18287 -1.4783 0.18031 -0.082408 0.045078 0.1643 -0.55476 -0.12545 -0.29866 -0.0099665 0.19232 -0.16088 0.020343 0.59278 0.28662 0.13052 -0.56911 -0.072827 0.42756 -0.2106 0.11651 0.29711 0.021255 -0.090249 -0.0083582 -0.099669 -1.4853 0.48142 -0.058566 -0.093208 0.089396 0.087011 0.13446 -0.13509 0.13282 0.13659 0.013952 -0.26617 0.17324 -0.08747 -0.14098 -0.2877 0.20452 -0.6326 0.19378 -0.13999 0.19618 0.31768 0.089974 0.17915 0.21 -0.024396 -0.035726 -0.082335 0.48922 0.44447 0.094769 0.14518 -0.15489 -0.40167 0.25398 -0.072045 -0.21414 0.26491 -0.087933 0.36613 0.11002 -0.066319 -0.19286 0.30455 0.23313 -0.10428 -0.19709 0.45138 -0.14786 0.089413 0.18728 0.14096 -0.19797 0.31618 0.18845 0.11344 -0.13099 0.56289 -0.30763 -0.31616 -0.19502 0.19211 -0.35595 -0.39834 0.15669 -0.37848 -0.10295 -0.049136 -0.15617 0.031128 -0.26353 -0.0015379 0.21024 0.1009 -0.17506 0.078611 0.021656 -0.27061 -0.43275 -0.84501 0.27196 0.24025 0.31786 0.49991 0.1651 0.036993 -0.0883 -0.097222 0.14087 0.42438 -0.11064 -0.14837 0.1873 0.073308 0.13175 -0.48634 0.135 -0.36806 -0.21397 0.11136 -0.26605 -0.10032 0.047068 0.19131 -0.16823 -0.1514 -0.029672 0.067768 0.001187 0.29592 -0.30954 0.21303 -0.34167 0.53054 -0.44126 -0.071577 -0.20553 -0.03016 -0.040373 0.0043901 0.099953 -0.49179 -0.24699 -0.37094 0.08167 0.15573 -0.036316 -0.33358 0.054472 -0.22874 0.35347 0.094727 -0.1485 0.022802 0.32363 0.21326 0.22096 -0.023268 -0.17515 -0.26126 0.020616 0.061774 -0.27054 0.26629 -0.12031 0.05852 0.21862 -0.33968 0.46904 -0.013642 0.19793 -0.087424 0.11283 -0.2882 0.38853 0.084253 -0.2242 0.26484 -0.15879 0.10776 -0.013993 -0.35904 -0.13323 -0.18689 -0.18281 -0.18447 1.181 -0.32906 -0.061718 0.12247 -0.09143 -0.37498 -0.13194 -0.2201 -0.047595 -0.1703 -0.0031105 0.51042 -0.023382 0.14415 0.30018 0.065248 0.29721 0.13415 -0.056905 -0.17078 0.46717 -0.1391 -0.13232 0.2668 -0.024989 0.13922 0.10022 0.0515 -0.15087 0.035097 -0.015815 0.31105 0.15889 0.088996 0.12102 -0.052837 0.11989 0.36353 -0.38583 0.027393 0.49322 0.058088 -0.14334 0.34068 -0.18299 -0.23684 0.35769 -0.18851 -0.17957 0.47583 0.27789 -0.26301 0.14953 0.093018 0.44856 0.18194 -0.28516 0.14185 -0.52199 0.34218 0.068913 0.037287 0.19628 0.11841 0.059335 0.16348 0.042702 -0.16578 -0.21189 0.26207 0.0078758 -0.04879 0.27958 -0.016425 -0.011727 0.10714 -1.733 0.36984 0.42868 -0.3235 -0.31071 0.02906 0.056337 0.22414 -0.19471 -0.079825 0.088556 0.56065 0.0044268 -0.18772 0.212 0.069263 -0.14717 0.27485 -0.084744 -0.26778 -0.075606 0.29601 -0.037733 0.26732
specific -0.60346 0.12508 -0.13601 -0.17236 0.012502 0.16158 -0.22684 0.2189 0.0056182 -2.3077 -0.17951 0.15614 -0.49795 0.014984 0.12687 0.0010408 -0.49871 -0.17686 -0.16723 -0.38877 -0.31818 0.051809 0.23272 0.11244 -0.6571 0.00858 -0.49545 0.083871 0.10107 0.21351 -0.044772 0.076732 -0.52921 -0.40971 -0.42486 0.12615 0.19319 0.29566 -0.44271 -0.15397 -0.18326 0.14099 0.21022 -0.15612 -0.26468 0.043914 -0.023017 0.098338 0.10277 0.17959 0.10565 0.22349 0.30828 0.026209 -0.45826 0.096598 -0.26755 -0.17147 0.31375 0.15147 0.19835 -0.065472 -0.037422 -0.030847 0.23173 -0.073431 0.18566 0.39127 -0.079385 0.80005 0.25125 -0.087036 0.2271 -0.15326 -0.05984 0.0223 -0.15574 0.4701 -0.22666 0.0098259 0.22038 -0.28106 -0.13477 -0.33013 -0.14056 0.28838 -0.2172 -0.2383 -0.23382 0.49947 -0.5286 0.38607 -0.50257 -0.13901 0.25131 0.026506 0.045671 0.12114 0.32854 -0.77282 -0.25088 -0.0069733 -0.09762 0.51411 -0.095829 -0.25922 -0.19078 -0.086105 -0.19418 0.11298 0.14154 0.094107 -0.088452 0.29656 -0.45851 -0.38276 0.027718 -0.56325 -0.031178 -0.017098 0.20634 0.38201 0.10689 0.19557 -0.04101 0.040084 -0.13981 0.3684 -0.12888 -0.033735 0.55508 -0.47384 0.14368 -0.14408 0.12407 -0.0046892 0.1525 0.62391 -0.1318 0.021801 -0.10475 -0.23145 0.21407 -0.40793 -0.075723 -0.073427 -0.45886 0.023243 0.24715 0.1796 -0.11426 0.20741 0.27147 -0.15689 -0.37562 -0.88204 -0.011978 -0.065955 -0.17844 -0.27975 0.26246 -0.14939 0.17511 -0.46226 0.30643 0.28425 -0.31275 0.50094 0.16897 0.52632 0.16779 -0.37488 0.029679 0.10162 0.15847 -0.19974 0.11598 -0.1651 -0.20072 -0.25761 -0.37629 -0.36649 -0.059387 -0.16539 -0.72551 0.16495 0.012167 0.05153 0.54909 -0.12244 0.27769 0.022279 -0.057615 0.31998 -0.066992 -0.55944 0.094297 0.070692 -0.36229 -0.44743 -0.40221 -0.26307 -0.51584 -0.187 0.16035 0.26082 -0.63439 0.38031 0.030314 -0.070156 0.16345 -0.40275 0.3149 -0.14144 -0.624 -0.026709 0.50246 0.25098 0.18937 0.095451 -0.56052 0.0050827 0.34156 -0.129 -0.099444 -0.042303 0.0018972 0.43562 -0.072268 -0.012708 -0.12224 0.31693 0.019426 0.33421 -0.061064 0.030919 -0.20887 -0.080202 0.25594 0.76019 0.24833 -0.04011 0.58411 0.085752 -0.80016 -0.082224 -0.090997 0.29016 -0.33281 0.24591 -0.061696 0.14603 -0.2968 -0.20812 -0.053224 -0.086614 0.074728 0.56116 -0.28769 0.2277 -0.2083 -0.19992 0.23503 -0.42941 -0.01777 -0.11345 -0.38627 0.39483 -0.086886 -0.037159 0.09754 0.14845 -0.12591 0.3875 0.13616 0.20775 -2.3215 -0.024834 1.0325 -0.14153 0.059803 -0.23078 -0.30152 0.51692 -0.29881 0.38032 0.13015 -0.24829 0.30475 0.035743 0.17336 -0.20014 0.10724 0.016821 -0.046833 0.37998 -0.72285 0.05365 -0.20803 -0.10058
atmosphere 0.07786 -0.31807 0.25901 -0.50673 -0.16616 -0.75996 0.40351 0.33013 0.44367 -1.7946 0.20792 -0.18588 0.07074 -0.019405 -0.78717 0.11041 -0.43773 0.58105 -0.22638 0.96223 -0.034892 0.053253 -0.023953 0.78947 0.22118 -0.46211 0.39187 0.098308 -0.464 -0.010628 0.034472 -0.057763 -0.88212 -0.36354 0.14558 0.65451 0.13883 0.19796 0.16857 -0.031993 0.29111 0.11071 0.23193 0.05505 -0.48784 0.26624 0.072075 -0.012903 0.15617 -0.58442 0.25996 0.020698 -0.39012 -0.2709 0.64318 0.29941 0.6203 -0.40858 0.4724 0.063262 0.20695 -0.04768 0.29804 -0.86957 -0.1964 -0.20461 0.12887 -0.31167 0.055982 0.10044 0.12323 -0.21323 0.0050927 -0.33937 0.046081 -0.25832 0.41349 0.2691 0.056477 0.30146 0.16995 -0.47509 -0.11468 0.092002 -0.0029064 -0.16872 0.19168 -0.09835 0.10845 -0.1158 -0.40023 0.14066 -0.21113 0.18861 -0.067458 -0.2417 0.22426 0.0081404 -0.40037 -0.3428 -0.13826 -0.10717 -0.3806 0.058124 0.17917 0.7608 -0.35293 0.46905 0.23866 0.057024 -0.44884 -0.61399 0.71501 0.086309 -0.16979 -0.48774 0.10231 0.088937 -0.057543 -0.24783 -0.088794 -0.39518 -0.041399 0.46264 0.123 0.0080166 0.47368 0.27007 0.1075 0.51822 0.37024 0.46431 0.76062 -0.33777 -0.03994 0.38554 -0.41244 0.14531 0.35395 -0.19618 -0.53714 -0.52893 -0.27283 0.49155 -0.19853 -0.0001981 -0.057784 -0.014463 -0.52074 -0.020305 -0.3436 -0.30461 -0.76962 0.34771 1.0338 0.059187 -0.075952 0.36792 -0.034872 -0.35992 -0.051097 -0.73558 0.21271 -0.52358 0.58537 -0.48152 -0.20606 -0.073986 -0.23874 -0.19691 0.52482 0.83961 -0.73113 -0.23697 0.10201 0.093203 0.021683 0.39625 -0.26273 -0.22932 0.025876 -0.39588 -0.24745 0.42736 -0.092879 -0.26723 0.3151 0.1777 -0.6403 0.37088 0.21518 -0.85518 -0.10207 0.066838 0.24579 -0.2187 0.058448 0.83402 -0.51386 -0.28094 0.19759 -0.043171 0.11717 0.26278 0.0043054 -0.20208 0.39424 0.21466 0.013413 0.050439 -0.13761 0.38677 0.067809 -0.36588 -0.036288 -0.32416 0.87678 -0.65621 0.39775 -0.07496 0.73677 -0.20419 -0.30642 0.13613 -0.98275 0.066507 -0.46999 0.14025 0.54709 0.35457 0.20171 0.072428 -0.065227 -0.52705 0.029049 -0.2196 0.078622 -0.44926 -0.042633 0.41848 0.065761 0.20041 -0.090932 0.77285 -0.34032 -0.4903 -0.099608 0.37196 -0.28126 -0.40499 0.87704 -1.0534 -0.5489 -0.048469 -0.34021 0.41671 0.14963 -0.73063 0.4397 0.12092 0.33284 -0.2422 0.36681 -0.18718 -0.11595 -0.038238 0.32361 0.26561 0.57151 -0.076608 -0.19168 0.72742 0.20469 0.26194 0.83105 0.052958 -1.3361 0.096534 0.49704 -0.24791 -0.69129 0.52897 -0.54018 -0.099686 -0.13919 -0.19171 -0.15071 0.39029 0.39823 -0.14042 -0.086045 0.35552 -1.1138 0.52221 0.38251 -0.64384 -0.075643 0.30363 -0.36158 0.012028
am 0.41433 -0.15868 0.42219 -0.44665 0.24901 -0.12024 0.028245 0.81013 0.13677 -2.0753 0.29317 0.17348 0.27799 -0.0026036 -0.026132 0.49951 0.23872 0.32535 0.84901 0.13211 0.63298 -0.21445 -0.016336 0.32111 -0.20506 0.17625 0.17665 -0.16618 0.14587 -0.22565 0.28847 0.13753 -0.39139 -0.32807 -1.3439 0.22884 0.19892 -0.074369 -0.44259 0.99128 -0.13834 -0.2942 0.24712 -0.57045 0.29902 0.33948 1.1431 0.10534 0.59548 0.078615 0.47723 0.15279 -0.1297 -0.33355 -0.69093 0.7556 0.71972 0.56252 1.0956 -0.10479 0.72762 -0.53056 -0.26839 0.15913 -0.25453 -0.27627 -0.091539 -0.4459 -0.19554 0.37131 0.32518 -0.4277 -0.41775 1.0029 -0.055143 0.10275 0.069617 0.42543 0.037436 0.42704 -0.64661 0.2693 0.4587 -0.25267 0.18471 -0.073875 -0.79792 0.13759 0.29511 0.70703 -0.22964 -0.12175 -0.33763 -0.6159 0.13437 -0.23845 0.081499 -0.077986 0.036362 -0.11971 -0.28012 -0.20731 -0.22641 -0.048976 -0.26223 0.0060626 0.56332 -0.16008 -0.072764 0.60203 -0.24078 0.20273 -0.17346 -1.0024 0.35901 -0.19845 -0.030513 -0.32828 0.043495 -0.2144 -0.25014 0.4626 0.13771 0.25729 -0.6883 -0.76121 0.45542 0.67951 -0.32065 -0.69363 0.090624 -0.4847 0.22759 -0.062216 -0.80766 -0.44743 -0.35709 0.29528 0.17667 -0.1712 -0.66631 0.31778 0.22594 0.39963 -0.074137 -0.10148 -0.18716 0.066129 0.18491 0.11745 0.065944 -0.068037 -0.0078186 0.49295 0.046821 0.09652 0.5937 0.024951 0.17181 0.020922 -0.057849 -0.10226 0.16319 -0.37143 -0.09264 0.36289 -0.39104 -0.5459 -0.16035 -0.43375 0.43215 0.24199 0.20974 -0.26623 0.10573 -0.20626 -0.11708 0.036286 -0.063538 0.54113 0.037674 -0.10763 0.35034 -0.52225 0.36354 0.21263 -0.15214 -0.099673 -0.13131 0.55628 0.13397 0.2712 0.13618 0.5647 -0.14629 -1.2799 -0.34503 -0.29778 -0.62028 -0.52241 1.3491 0.20334 -0.25506 -0.28004 -0.058422 0.051107 -0.088506 -0.36333 0.41387 -0.65637 -0.093892 -0.56287 -0.82918 0.34501 -0.69056 0.35378 -0.35053 0.016466 -0.19268 0.29366 0.38439 -0.50464 0.25833 0.67949 0.38253 0.67918 -0.14847 -0.12614 -0.02326 0.14214 0.54313 -0.078008 0.48643 -0.66257 0.10473 0.35907 -0.048865 0.67286 -0.17477 -0.092065 -0.29597 0.50029 -0.24958 0.15852 0.45413 0.25932 -0.18599 -0.084667 0.44591 0.3476 -0.16683 -0.043233 0.05702 1.0519 0.40636 0.70764 0.52605 -0.26223 -0.039249 -0.39458 0.26752 0.17534 -0.33603 0.1858 0.25764 0.017887 0.59642 -0.34195 0.26683 0.082006 -0.16551 -0.46113 0.36863 0.10659 0.049672 -0.23339 -1.1011 0.51757 0.44567 0.25759 0.085894 -0.19536 -0.30531 -0.41959 -0.18714 0.195 -0.37006 0.46318 -0.43397 -0.47856 0.15598 -0.67363 -0.12668 -0.26962 0.079334 0.029406 0.19909 0.22092 0.39118 0.56942
casual -0.18273 0.3894 0.41375 -0.26825 -0.23966 -0.51088 -0.021264 -0.44311 0.37885 -0.76434 0.20329 0.25373 -0.027434 0.26698 -0.16413 -0.48221 0.01305 -0.13329 -0.22713 0.11313 -0.1347 0.537 0.2981 0.020605 -0.23545 -0.72599 0.47833 0.14586 0.58424 -0.1022 -0.17799 0.24446 -0.29493 -0.030197 -0.80453 0.75854 -0.20406 -0.71338 0.29161 -0.24621 0.079785 0.27126 -0.18867 -0.097817 -0.29353 0.14679 0.87859 -0.62782 -0.29469 -0.2324 -0.35885 -0.4723 0.11914 0.48153 -0.0016235 0.04414 -0.80791 -0.16818 0.23288 0.40453 0.57776 -0.37237 0.020411 -0.43629 -0.18751 -0.29842 0.33447 0.10295 -0.05466 0.12375 0.24692 -0.1201 0.54017 -0.22622 0.1671 0.077964 0.15043 0.37334 0.069898 -0.80241 0.29588 0.48438 -0.75563 -0.092541 0.24531 -0.60229 -0.26553 -0.3453 0.37393 0.357 -0.49423 0.1625 0.28928 0.064295 0.47064 -0.45302 0.30915 -0.034412 0.35676 -0.67177 0.36628 0.19762 -0.3715 -0.014963 -0.44831 0.19943 -0.12411 0.11823 0.62325 -0.22107 0.36663 -0.055708 0.078537 -0.20865 0.11828 0.14204 0.51619 -0.065258 -0.095203 0.014825 -0.25135 0.46512 0.60095 0.38098 -0.38498 0.4945 0.15024 0.43466 0.27161 -0.19605 -0.091509 -0.25632 -0.28618 -0.30909 -0.40656 -0.27367 -0.019723 0.49098 0.15015 -0.44494 -0.63077 -0.11814 0.44715 0.44564 -0.23274 0.25986 -0.019435 -0.038122 0.13436 -0.21241 -0.73379 0.20248 0.061853 -0.34012 0.2487 -0.80446 0.1711 0.25971 0.18377 -0.36307 0.039493 -0.14926 -0.22865 -0.33125 0.17089 -0.26744 0.33562 0.42948 0.35894 0.18998 -0.27526 0.21817 -1.134 0.55504 -0.22268 -0.25974 0.090978 0.55712 -0.18788 -0.11405 0.47915 -0.33633 -0.14966 -0.2443 0.36739 -0.24727 0.64055 -0.079697 0.06097 -0.056815 -0.39138 -0.093155 -0.37651 -0.34597 -0.2932 -0.00061426 -0.64196 -0.10844 -0.58373 -0.65616 -0.11921 -0.73701 0.63898 0.5571 0.041681 0.58435 0.1925 0.029748 -0.0066187 0.292 0.031487 -0.1972 0.32539 0.794 -0.50869 -0.032363 0.23591 -0.59752 -0.017564 -0.041249 0.30524 0.62553 -0.088354 0.59716 -0.13956 -0.28622 0.12649 -0.3289 0.62494 0.29496 0.56635 -0.31297 -0.31219 -0.026188 0.17145 -0.0030311 0.77947 0.010021 -0.98997 0.89514 0.50324 -0.10254 -0.43974 0.31759 -0.15403 0.66985 -0.65564 -0.20125 -0.23325 -0.34736 0.92711 0.01425 0.23999 0.24928 -0.23926 -0.20954 0.20422 -0.02679 -0.12206 0.13921 -0.26271 -0.56737 -0.046454 -0.40394 -1.472 -0.25731 0.3112 0.13714 -0.026508 0.12373 -0.1349 0.54018 0.20286 -0.70716 0.40171 -0.25646 -1.0425 0.86378 -0.20098 -0.15869 0.016498 0.058114 0.55099 0.15483 -0.12026 -0.23699 -0.23541 0.032906 -0.35903 -0.16454 0.13896 0.21585 -0.80019 0.259 0.26934 -0.59109 -0.2654 0.57125 0.23673 -0.57446
any -0.064107 0.32856 -0.18801 -0.31422 -0.72045 -0.16241 -0.032234 -0.14548 0.38959 -2.4436 -0.36826 0.73439 -0.086195 0.14683 0.23779 -0.10109 -0.39566 -0.15822 -0.18646 -0.36879 0.11829 0.14708 0.32323 -0.0057252 -0.27328 -0.24279 -0.21068 0.2171 -0.010071 0.16844 -0.11941 0.1006 -0.0085117 -0.81425 -0.97733 -0.13486 -0.16283 -0.017538 -0.025086 0.49468 -0.21091 0.03956 -0.01223 0.12079 -0.088414 0.37097 0.26531 0.34526 -0.25821 0.28715 0.13792 0.090883 0.0034483 0.23089 -0.17738 0.35255 -0.5477 0.3126 0.18059 0.017432 0.24413 0.12471 0.19463 0.43402 -0.05476 -0.14522 0.45026 -0.13459 0.07655 0.32042 0.41471 -0.14801 0.30062 -0.18454 -0.18929 0.68108 -0.10126 0.43509 -0.49506 0.21156 0.0091824 -0.19082 0.31985 0.34205 0.053606 -0.16466 -0.38466 -0.15909 -0.34504 0.33146 -0.95148 0.098991 -0.36558 -0.12225 0.25227 -0.012954 -0.22297 -0.10649 0.13039 -0.24121 -0.13741 0.1575 -0.57712 -0.069753 -0.19109 0.29629 -0.057446 -0.022164 -0.11881 -0.05445 -0.2283 0.068631 -0.071825 -0.032721 0.2372 0.29266 0.008316 0.029106 -0.13485 -0.25007 0.27568 0.2498 0.14196 0.13685 0.04331 -0.087985 -0.044971 0.76731 0.31955 0.14364 0.31241 0.066929 0.37557 -0.13784 0.16831 0.27151 0.19106 0.33512 -0.36661 0.075573 -0.044795 0.14718 0.48203 0.18029 -0.43587 -0.35763 -0.24794 -0.1051 -0.2618 -0.05835 0.07539 -0.29429 0.063521 0.17006 0.15434 -0.29189 0.14622 -0.17182 -0.047243 0.073466 0.38979 -0.00039955 -0.22514 -0.040899 0.055062 0.33813 0.055886 0.56859 0.30471 0.065765 0.35587 -0.46099 -0.70801 -0.50887 0.051443 -0.28817 0.16227 -0.048888 0.44517 0.13 0.017362 -0.024114 0.04838 0.090432 -0.3735 0.10284 0.22509 -0.13134 0.003937 0.14742 -0.1762 -0.2711 0.063707 -0.3797 0.35816 -0.26251 0.35924 0.020556 -0.041459 0.1023 0.88447 -0.23583 -0.2917 -0.23921 -0.059707 0.18774 -0.057629 0.19486 -0.19151 -0.41791 -0.49216 -0.23537 0.091487 0.18079 -0.25589 -0.29842 0.45285 0.42116 0.0072513 0.35579 -0.27187 -0.17323 -0.19051 -0.44668 -0.03768 -0.57381 0.4714 0.28931 0.39411 -0.16152 0.040833 0.24662 0.096035 -0.20091 -0.080028 -0.01201 0.14675 -0.054638 -0.1245 0.38625 0.15131 0.085874 0.38417 -0.020807 -0.88615 0.31409 0.35144 0.18696 -0.39849 -0.065175 -0.22535 0.089668 -0.42608 -0.19663 -0.035814 0.07185 -0.10357 -0.40281 0.0040006 0.16351 0.1538 -0.32788 -0.033197 0.20765 -0.21091 0.36802 0.18336 0.24316 0.038199 0.29773 0.24323 0.18262 -0.062245 0.16681 0.088273 0.21406 -2.7924 -0.038306 0.75281 0.15709 0.26128 0.15764 0.14579 0.3011 0.028343 -0.22088 0.28885 0.15692 -0.073699 -0.19677 -0.17102 -0.32366 0.51051 0.16124 -0.071702 -0.053966 -0.092353 -0.49963 -0.16813 0.15363
preference -0.24939 0.35306 0.17539 -0.084316 -0.036511 -0.083416 0.17462 -0.015328 0.001987 -1.2155 -0.6277 -0.21133 -0.49424 -0.48858 0.070625 -0.39756 0.48417 -0.77282 -0.096726 -0.38718 0.074815 0.11606 0.025096 0.24578 -0.32384 -0.042275 -0.036734 0.28457 0.13732 -0.036503 -0.37862 0.037089 -0.11367 -0.76623 -0.59478 0.2987 -0.038118 -0.56904 -0.7353 -0.05305 0.12112 -0.19694 0.14594 -0.26914 -0.24791 -0.055861 -0.06261 0.33471 0.29908 -0.34247 -0.01703 -0.29796 0.11053 0.13945 -0.10299 -0.39762 -0.10255 -0.38699 0.022842 0.37373 -0.096207 0.1943 -0.0855 -0.0049019 -0.2647 -0.58483 0.20578 0.01581 -0.034865 0.68225 0.23882 0.12629 -0.013266 0.050429 0.091951 0.32067 0.24575 0.3415 0.25876 -0.14895 -0.20619 0.21676 -0.48829 -0.47084 0.40082 -0.40096 -0.0021855 -0.73347 -0.001068 0.53796 -0.16274 -0.51199 0.17736 -0.045518 0.36483 -0.22918 0.44215 -0.015734 -0.30469 -0.010594 0.11055 -0.47778 -0.29912 -0.083341 -0.72798 0.6121 -0.51869 0.085401 -0.23272 -0.20045 0.48389 -0.32731 -0.0030743 0.1831 -0.10422 0.23681 -0.0020961 0.50546 -0.0070696 -0.34151 -0.04122 0.0031475 -0.0032973 0.05858 0.025104 0.14778 0.081311 -0.16397 -0.39921 -0.5577 -0.45624 -0.41757 -0.05801 -0.12968 0.084668 0.64151 -0.098285 -0.056204 0.6438 0.16998 -0.049077 0.060142 0.39495 -0.5464 0.074823 -0.32082 -0.43772 -0.098886 0.13959 -0.059078 0.031977 0.10799 0.41773 -0.44003 -0.080643 -0.07457 0.040798 -0.11051 0.18596 0.042058 0.28952 -0.12856 -0.14244 0.39786 0.41239 0.37907 -0.099435 0.44112 -0.054278 -0.065653 0.064252 -0.071083 -0.82909 -0.068235 0.23103 -0.10099 -0.12056 0.3697 0.11154 0.50381 0.29924 0.17827 -0.0016642 0.23224 -0.32804 -0.094012 0.13844 0.49968 0.21579 0.37322 -0.42738 -0.0013533 0.10591 -0.048749 -0.33179 -0.093305 -0.075708 0.48633 -0.109 -0.18431 -0.19491 -0.41345 -0.2164 -0.2909 0.28304 0.031608 -0.14782 0.16573 -0.11237 0.39673 -0.14672 0.086176 0.11254 -0.33307 -0.50333 -0.17232 0.61546 0.17738 0.26641 0.070195 -0.58481 0.18306 0.026595 0.037518 -0.16727 0.21883 -0.08348 0.14622 0.16149 0.40781 0.02019 0.1641 0.21579 0.45423 -0.064338 0.020458 0.056279 0.23932 -0.24351 0.34892 -0.11556 -0.15916 0.61053 0.27291 -0.91296 0.30897 0.27523 -0.084854 0.2131 -0.27684 0.098878 0.18445 0.34938 0.098787 -0.63661 0.066187 -0.10103 0.48629 -0.045642 0.12818 0.46192 -0.027587 -0.20659 -0.24421 0.18296 -0.34459 0.38304 0.3081 0.13287 0.50662 -0.050034 -0.5643 0.042443 -0.6113 -0.049171 -0.42538 -0.73518 0.11836 0.59865 0.05591 0.10896 -0.3021 -0.30999 0.15378 0.013101 0.075148 0.0044197 -0.11383 0.63403 0.064928 -0.56385 0.06152 0.28719 0.11843 0.080991 -0.19697 -0.82722 0.16727 -0.017248 -0.19274
type -0.76777 0.42708 0.22429 -0.72303 -0.13431 0.33728 -0.042279 0.37803 -0.34379 -2.1318 0.24347 0.11776 -0.39444 0.0058927 0.17131 -0.2141 -0.09795 -0.089732 -0.11521 -0.13376 -0.025509 -0.039526 0.068158 0.45744 -0.26229 -0.051632 0.03357 -0.38968 0.24425 -0.24606 -0.25318 0.49444 -0.4285 -0.26803 -0.21731 0.24421 0.16634 -0.14889 -0.0090726 0.71037 -0.52869 -0.06743 0.24294 -0.28982 0.03889 -0.45332 0.752 -0.093374 -0.10109 0.076881 -0.24663 0.15653 -0.10768 0.1149 -0.063325 -0.19825 -0.52653 -0.23016 0.26089 -0.39262 0.27776 0.034782 0.31589 -0.30439 -0.36231 0.35479 -0.37654 0.28468 0.30699 0.23662 -0.0041813 0.60338 0.053726 0.13487 -0.63539 0.052152 0.12275 0.36761 0.038407 0.14974 -0.091126 0.056897 -0.31783 -0.40302 0.42584 0.45451 -0.1836 0.20081 0.0092207 0.1767 -0.17554 0.17484 -0.26135 -0.19494 0.80838 0.40714 0.1592 0.093935 0.6809 -0.80355 -0.30815 0.26818 -0.038689 0.021724 -0.14765 -0.028032 -0.25733 0.23091 -0.22031 0.50692 0.13743 0.20658 -0.41362 -0.12789 -0.36721 -0.23762 -0.030575 0.45831 -0.10467 0.21374 0.37081 -0.3092 0.21641 0.42851 0.24939 -0.22435 0.031917 0.38942 0.27999 0.11838 0.55589 0.33522 0.50811 -0.23716 0.18045 0.48451 -0.52849 0.20287 -0.010962 -0.010902 -0.1102 0.036253 0.095982 -0.37025 -0.48672 0.11914 -0.36083 -0.19366 0.01675 0.42224 -0.2048 -0.33573 0.10523 -0.17061 0.19151 -0.14388 0.48423 -0.067125 0.26731 -0.18212 0.11362 -0.48863 -0.30556 -0.20734 0.18614 0.21685 -0.18102 0.70741 -0.11387 -0.3256 0.31269 0.19567 -0.018131 0.44668 -0.32025 -0.55838 -0.27921 0.13863 0.23851 -0.53647 0.12694 -0.036139 0.0075591 -0.065237 -0.4362 -0.20362 0.14185 0.54502 0.34621 -0.15485 -0.19658 0.45288 0.22692 0.52506 0.23162 -0.42173 0.24753 -0.49015 0.034549 -0.50073 0.45173 -0.14949 0.011215 -0.26152 0.34646 0.24278 -0.57661 0.16819 -0.26038 0.40406 -0.087225 -0.11922 -0.088513 -0.52409 -0.46861 -0.25573 0.01308 -0.067726 -0.10273 -0.01022 -0.81341 0.22019 0.40455 0.03657 -0.29339 0.18634 0.18973 -0.16829 0.13151 0.39189 -0.24906 -0.050538 -0.12703 0.24178 0.23466 0.39312 -0.1046 0.24922 0.03289 0.73146 0.30923 -0.49667 0.39723 0.14204 -0.79661 -0.057002 -0.039325 -0.23037 -0.35131 0.0065636 0.12417 0.11771 -0.58934 0.044206 0.16728 0.13243 0.09853 0.075734 0.045161 -0.21339 -0.16697 -0.16044 0.17289 -0.012058 0.20644 -0.25098 -0.40983 0.56331 0.30209 0.24968 0.15549 -0.14528 0.46653 -0.18819 0.0090647 0.051036 -1.3032 0.11897 0.055666 0.066619 -0.072059 -0.1644 -0.51713 -0.034706 -0.16701 0.39639 -0.65201 0.033025 0.21453 -0.018381 -0.43931 -0.3105 -0.23574 -0.047131 0.020559 0.2726 -0.27653 -0.54368 0.39541 0.14434
of -0.076947 -0.021211 0.21271 -0.72232 -0.13988 -0.12234 -0.17521 0.12137 -0.070866 -1.5721 -0.22464 0.04269 -0.4018 0.21006 0.014288 0.41628 0.017165 0.071732 0.0069246 0.18107 -0.15412 0.14933 -0.030493 0.29918 0.029479 -0.036147 -0.061125 0.083918 -0.12398 -0.10077 -0.0054142 0.3371 -0.25612 0.44388 -0.68922 0.1802 0.34898 -0.052284 -0.26226 -0.47109 0.21647 -0.4002 -0.049986 0.011376 0.54994 -0.22791 0.095873 0.47693 -0.056727 -0.17895 0.11756 0.14662 0.048948 0.13587 -0.093821 0.45968 -0.32062 0.29911 0.20656 -0.18503 -0.2769 -0.022545 0.70698 -0.23815 0.16437 -0.55044 -0.0010615 0.12266 0.11898 0.23985 0.29815 0.013207 0.16316 -0.61334 -0.37051 0.19444 -0.13621 -0.30426 -0.37715 0.065299 -0.15995 -0.56516 0.074696 0.40184 0.19328 0.041802 0.20572 0.28971 0.34783 0.33873 -0.10052 -0.16397 -0.15236 -0.086815 0.36522 0.14969 -0.40859 0.23106 0.17162 -0.60545 0.086019 0.37043 0.17937 -0.40282 -0.62471 -0.055919 0.15092 0.12554 -0.45344 0.34417 0.40042 -0.049512 -0.29969 -0.31761 0.30023 0.090029 0.3106 -0.033077 -0.21995 -0.40396 -0.34443 -0.21248 -0.37636 0.21835 -0.1785 -0.17261 0.16391 0.22753 0.2686 0.57541 -0.14912 0.20413 0.22187 -0.27014 0.068253 0.29115 -0.067943 0.10623 -0.16281 0.19939 -0.48613 0.035688 -0.12373 0.13707 0.33359 -0.12713 -0.31711 -0.13962 -0.04288 -0.0014614 0.76883 -0.41705 -0.092911 0.16315 0.29202 0.12119 -0.076683 0.14131 -0.093406 -0.042796 0.13738 0.014278 0.11918 -0.34215 -0.19076 -0.12499 0.24648 0.42259 0.091966 0.45351 0.14437 0.1878 -0.85876 0.059621 -0.32242 0.28627 0.12427 0.0090984 -0.1891 0.16638 0.099881 -0.048553 -0.026257 0.099904 0.12406 -0.015416 -0.29707 -0.4044 -0.17258 0.36468 -0.014118 -0.11889 -0.11686 -0.14124 0.28012 0.067644 0.1485 -0.35702 0.29626 0.36004 1.019 -0.067307 -0.11588 -0.2178 0.070191 0.23154 -0.13849 0.26441 0.28742 0.1941 -0.0060504 0.44105 0.12416 -0.27745 -0.25729 0.10992 0.18362 -0.34522 -0.21861 -0.18825 -0.037454 -0.20862 -0.25216 0.060842 0.068595 0.10275 0.10745 -0.061288 0.19725 -0.27739 -0.022559 0.052794 -0.24083 0.09199 0.30959 0.054999 0.063676 -0.087357 -0.34495 0.22793 -0.42405 0.24536 0.55708 0.19126 -0.797 -0.2048 0.32545 0.09235 0.084791 -0.16433 -0.066568 -0.099249 0.31526 -0.44465 0.087281 0.3288 -0.017809 -0.23855 -0.12848 0.041509 0.46728 0.48214 0.10548 0.065805 0.067221 0.13321 -0.27856 0.015532 0.30026 0.38748 -0.14401 -0.16131 0.17678 0.16448 -0.3244 0.007937 -2.2836 0.096945 0.66131 0.16857 -0.028877 -0.10791 -0.027445 -0.25695 0.046686 0.23087 -0.076458 0.27127 0.25185 0.054947 -0.36673 -0.38603 0.3029 0.015747 0.34036 0.47841 0.068617 0.18351 -0.29183 -0.046533
cuisine 0.36267 0.42668 0.14705 -0.10025 0.38282 -0.54441 -0.32433 0.022974 -0.11865 -0.27181 0.48797 -0.56903 -0.60201 0.71422 0.08516 -0.81791 -0.094604 0.2113 -0.018852 0.23555 -0.27511 0.55461 -0.014674 0.48953 -0.53742 -0.11012 0.35954 0.15365 -0.42532 0.089528 0.13979 0.42832 -1.2413 0.25612 0.0018947 0.77602 0.27834 -0.54323 -0.34146 -0.35972 0.029781 -0.71809 0.31961 -0.1685 0.20591 0.22928 0.5417 0.38228 -0.3211 0.53087 0.090833 -0.55779 1.0188 -0.32691 -0.52964 -0.33514 0.12418 -0.57231 0.42275 -0.17074 0.22427 0.038802 0.72355 -0.21792 -0.3613 0.13325 -0.10819 0.23617 -0.39785 0.16595 -0.17451 -0.26791 0.13731 -0.605 -0.41852 0.12618 0.83081 0.053804 -0.56796 -0.019494 -0.37619 0.62744 -0.18258 -0.14514 0.26609 -0.49554 -0.24895 0.17373 0.35583 0.26724 -0.31994 -0.05899 0.3593 0.21661 0.1161 -0.24537 0.41511 0.19725 -0.34954 0.44372 -0.30273 0.21972 0.57125 0.053581 -0.19533 -0.15026 -0.26168 0.10432 0.1828 0.19375 0.61462 -0.078461 0.05789 -0.87316 0.48228 -0.61072 -0.99854 -0.31081 -0.23293 0.3481 -0.17279 0.29488 -0.30699 -0.29813 -0.19908 -0.052672 0.14376 0.27449 0.022613 0.50658 -0.044027 -0.010627 0.36118 -0.64307 0.17339 -0.53202 0.19946 0.14983 0.017373 0.58234 -0.14716 0.0042083 0.40894 -0.095419 0.15165 0.18099 -0.36849 -0.17185 -0.69711 0.26778 -0.29453 0.23861 0.61798 -0.47725 0.12765 -0.23967 -0.50442 0.071572 0.10302 -0.90226 0.48484 0.11663 -0.4035 -0.10166 -0.11512 0.21803 0.34148 -0.56946 -0.11098 -0.48004 0.25417 -0.05055 -0.49522 0.14662 -0.068702 0.52091 0.016878 -0.21343 0.61635 -0.59007 -0.20937 0.0029596 -0.37976 -0.1122 0.47026 0.31055 0.045662 0.7997 -0.094529 -0.58752 -0.15993 0.1869 -0.5221 -0.051544 -0.33196 -0.19489 -0.41074 -0.096428 -0.34648 0.2773 0.17748 -0.16948 0.025722 0.63216 -0.0017567 0.47396 -0.14622 0.35927 -0.20497 -0.044947 -0.031074 -0.20797 0.098048 0.37525 0.36867 0.44528 0.27411 -0.7773 -0.24659 0.075862 0.36099 0.13813 -0.39082 -0.21391 -0.0045707 -0.21075 0.17391 -0.11396 -0.20919 0.14965 0.17306 0.14864 -0.39743 1.0248 -0.018 0.24661 0.25202 -0.45451 -0.37631 0.11144 -0.33829 -0.21674 0.0032128 0.20921 -0.64597 0.35255 -0.8902 0.37993 -0.68926 -0.14978 0.65296 0.11731 0.46708 0.40769 -0.81987 0.43026 -0.42288 0.28405 -0.73809 -0.026332 -0.42658 -0.37089 0.044196 -0.35085 -0.16829 -0.67986 -0.15105 0.63427 0.6562 -0.45792 -0.5323 0.022842 0.07485 0.22851 0.73853 0.3428 -0.59393 0.39707 -1.0812 -0.57234 0.31115 -0.22335 -0.20371 0.25499 -0.23214 -0.25624 0.21016 -0.15215 0.21059 0.25284 0.49906 0.026134 -0.30225 0.18892 0.037744 -0.58056 0.025189 -0.36584 -0.21522 -0.42286
wait -0.1122 -0.15939 0.23001 0.16382 0.10016 -0.079665 0.34682 -0.40694 -0.060438 -0.89631 -0.10394 -0.1616 -0.093566 -0.33077 0.14758 -0.61245 0.047816 -0.38349 0.42048 -0.04641 0.30555 0.16703 0.35261 -0.0085518 -0.36385 0.18243 0.3036 -0.11127 0.058904 -0.57133 0.23136 -0.0038689 0.37881 -0.19898 -1.2372 0.21642 -0.25384 -0.29913 -0.36907 -0.099912 0.086364 -0.040276 0.04926 0.061428 0.077087 -0.36193 0.27981 -0.19004 -0.51059 -0.25821 -0.16171 -0.29315 -0.32038 -0.19679 -0.17041 0.64044 -0.064937 0.22404 -0.13415 0.29134 0.17575 -0.19217 0.04732 0.38851 -0.17463 -0.48077 0.43234 -0.16644 0.17378 -0.097194 0.13913 0.37289 -0.27812 0.39399 0.20407 0.19849 -0.43774 -0.14907 -0.22063 -0.41932 -0.099956 0.11054 0.090253 0.2439 -0.13407 -0.046865 -0.083635 0.13525 -0.057946 0.23993 -0.22671 -0.07065 -0.014717 -0.31457 0.027792 0.54972 -0.67995 -0.20568 0.094992 -0.40028 0.26903 -0.23557 -0.28921 0.066876 -0.03443 -0.21639 0.53216 -0.064794 -0.23808 0.2794 0.051069 0.12968 -0.31897 -0.13766 -0.21386 0.28883 0.074271 0.10033 0.24375 0.046663 -0.42782 -0.35766 0.0017065 0.59942 0.055617 -0.030453 0.40799 -0.014033 0.283 0.0878 0.32061 -0.016919 -0.14515 0.14619 0.024332 0.34678 -0.24414 -0.13899 -0.044785 -0.15121 -0.017984 0.18987 -0.25106 0.31193 -0.60336 -0.20174 -0.1727 0.6751 -0.15768 0.20833 -0.65195 0.18311 0.059004 0.23036 0.53335 -0.11331 -0.11379 -0.41105 -0.33702 0.18608 -0.30321 -0.2095 -0.088123 -0.071506 0.11989 0.65842 0.032743 0.060442 -0.2654 0.18923 -0.25863 0.76929 -0.083657 -0.097781 0.23204 0.12788 -0.17234 0.44115 0.19497 0.21034 0.041274 -0.2871 -0.0086455 0.058624 0.16157 0.44636 -0.15641 -0.070501 -0.094728 0.12457 -0.34703 0.11348 0.55556 -0.14358 -0.059888 -0.53133 -0.11163 0.31922 0.02806 -0.29676 0.85247 -0.015674 0.17338 0.52496 0.18499 0.10145 0.078419 -0.060807 0.13246 -0.29199 -0.11331 -0.41973 -0.26648 0.15756 -0.31367 -0.38356 -0.084357 0.25727 -0.12023 -0.24659 0.46566 -0.18412 -0.097518 0.3414 0.0768 -0.19385 0.24798 -0.2235 0.065819 -0.094549 0.43127 0.32114 0.19471 -0.31725 -0.0099407 0.38658 -0.42766 -0.074414 0.26629 -0.37117 -0.063821 0.11529 0.0085837 0.087357 -0.17994 0.091243 0.3224 0.086658 -0.08481 -0.2901 0.054774 0.25449 0.095135 0.37762 0.0077317 0.10108 0.011785 0.34534 0.24719 0.14989 -0.12759 -0.20352 -0.43062 0.19997 0.27028 -0.165 -0.11679 -0.42268 0.19742 -0.25448 0.017902 -0.1754 0.19293 -0.33859 0.10132 0.0037783 -2.0916 0.28566 0.24712 -0.35493 0.096334 -0.30536 0.19108 -0.19175 0.15217 -0.079885 0.7058 0.24972 -0.35373 -0.026762 0.18197 0.06148 0.078714 -0.091817 -0.18746 -0.40232 -0.075366 -0.099228 -0.12774 0.46972
, -0.25539 -0.25723 0.13169 -0.042688 0.21817 -0.022702 -0.17854 0.10756 0.058936 -1.3854 0.58509 0.036501 -0.19846 0.19613 0.40929 0.15702 -0.15305 0.050447 0.30045 -0.11295 -0.017043 0.18593 0.19982 0.20053 -0.63141 -0.12622 0.2951 -0.26282 -0.15831 0.0012383 0.011784 0.58758 -0.15914 0.27731 -0.82343 -0.21134 0.013414 0.19637 -0.4147 0.0010276 0.13422 -0.14205 0.051545 0.34993 -0.29868 -0.3209 0.19566 0.47886 0.10744 0.010004 0.18503 0.080694 0.20739 -0.097365 -0.039448 0.020151 -0.17378 0.25679 0.24198 -0.351 0.18759 0.0063857 0.18395 -0.13929 0.0081855 -0.63109 0.29832 0.31731 0.13022 -0.32284 -0.050343 -0.114 0.12097 0.14687 -0.33244 -0.055789 -0.05849 0.27551 -0.043855 0.039664 0.15162 -0.086627 0.067729 0.23146 0.015351 -0.15142 -0.031975 0.45181 -0.068806 -0.077058 0.055193 0.054596 -0.24708 0.031113 -0.12826 0.12782 -0.46708 -0.026264 0.010387 -0.33174 0.17277 -0.26894 0.20467 -0.16181 -0.041519 -0.014878 0.10279 0.18868 -0.23396 -0.018436 -0.14747 -0.32685 -0.022055 -0.054 0.16264 0.27095 -0.22792 -0.0077006 0.11206 -0.039787 -0.11906 0.021773 0.05528 -0.13318 -0.056867 0.008304 -0.027021 0.23447 0.086864 0.12009 -0.30726 0.0024735 0.29041 -0.044887 0.12297 0.13077 0.090807 -0.39141 0.080546 0.18724 -0.097481 0.10397 0.11492 0.17775 -0.18167 0.24652 0.20136 -0.23395 -0.35018 -0.14061 0.17091 -0.095465 -0.10962 -0.09836 0.15344 0.08868 -0.22048 -0.13803 -0.11288 -0.08534 0.072735 -0.12732 -0.1964 -0.10586 0.0020616 0.13496 0.058912 -0.043979 -0.091375 0.24408 0.16872 0.24297 -0.43983 0.47089 -0.018595 0.16146 0.19828 -0.17237 -0.0026998 0.52097 -0.080197 0.43324 -0.066261 0.04324 0.084954 -0.14836 -0.41936 0.15988 -0.18411 0.1321 0.27476 0.27279 -0.13465 -0.091238 -0.32523 0.27936 0.023296 -0.33472 0.016878 -0.055544 0.92915 -0.33914 -0.14791 0.017301 0.18272 0.35108 -0.11438 0.13228 -0.021064 -0.27453 -0.10081 -0.046296 0.21689 -0.056319 0.14651 -0.023536 0.068026 -0.045453 -0.23851 -0.33868 0.31396 -0.031914 -0.019217 0.0018715 -0.13328 0.070148 -0.039761 0.070801 0.0018422 -0.12646 0.028675 -0.095728 0.26673 -0.35536 0.15286 0.064565 0.12647 0.23397 -0.046058 0.13519 -0.14549 0.23031 0.42066 0.16267 -0.16541 -0.0020155 0.080653 -0.30025 -0.076014 0.070612 0.3157 0.05352 -0.10721 -0.1366 0.32214 0.2004 0.11609 -0.22501 0.12155 -0.10851 -0.063187 -0.24553 -0.059751 0.068787 -0.11627 -0.0083402 0.0052044 -0.20159 -0.023663 0.17562 -0.31475 -0.11162 -0.12492 0.10949 -0.26913 0.34893 -1.6997 -0.2447 0.30292 0.05672 -0.31737 0.083612 0.095949 -0.1759 0.10235 0.36808 -0.3438 0.20607 0.19135 0.10992 0.075968 -0.014359 -0.073794 0.22176 0.14652 0.56686 0.053307 -0.2329 -0.12226 0.35499
